{"learner":{"attributes":{"scikit_learn":"{\"_estimator_type\": \"classifier\"}"},"feature_names":["SET_OH_log_ret_lag1","SET_OL_log_ret_lag1","SET_log_ret_lag1","SET_log_ret_lag2","SET_log_ret_lag3","SET_log_ret_lag4","SET_log_ret_lag5","SET_log_ret_lag6","SET_log_ret_lag7","SET_log_ret_lag8","SET_log_ret_lag9","SET_log_ret_lag10","SET_log_ret_lag11","SET_log_ret_lag12","SET_log_ret_lag13","SET_log_ret_lag14","SET_log_ret_lag15","SET_log_ret_lag16","SET_log_ret_lag17","SET_log_ret_lag18","SET_log_ret_lag19","SET_log_ret_lag20","SET_log_ret_lag21","SET_log_ret_lag22","SET_log_ret_lag23","SET_log_ret_lag24","SET_log_ret_lag25","SET_log_ret_lag26","SET_log_ret_lag27","SET_log_ret_lag28","SET_log_ret_lag29","SET_log_ret_lag30","SET_log_ret_lag31","SET_log_ret_lag32","SET_log_ret_lag33","SET_log_ret_lag34","SET_log_ret_lag35","SET_log_ret_lag36","SET_log_ret_lag37","SET_log_ret_lag38","SET_log_ret_lag39","SET_log_ret_lag40","SET_log_ret_lag41","SET_log_ret_lag42","SET_log_ret_lag43","SET_log_ret_lag44","SET_log_ret_lag45","SET_log_ret_lag46","SET_log_ret_lag47","SET_log_ret_lag48","SET_log_ret_lag49","SET_log_ret_lag50","SET_log_ret_lag51","SET_log_ret_lag52","SET_MACD_lag_1","SET_MACD_Hist_lag_1","SET_RSI_lag_1","SET_MFI_lag_1","SET_ATR_lag_1","SET_OBV_lag_1"],"feature_types":["float","float","float","float","float","float","float","float","float","float","float","float","float","float","float","float","float","float","float","float","float","float","float","float","float","float","float","float","float","float","float","float","float","float","float","float","float","float","float","float","float","float","float","float","float","float","float","float","float","float","float","float","float","float","float","float","float","float","float","float"],"gradient_booster":{"model":{"cats":{"enc":[],"feature_segments":[],"sorted_idx":[]},"gbtree_model_param":{"num_parallel_tree":"1","num_trees":"600"},"iteration_indptr":[0,3,6,9,12,15,18,21,24,27,30,33,36,39,42,45,48,51,54,57,60,63,66,69,72,75,78,81,84,87,90,93,96,99,102,105,108,111,114,117,120,123,126,129,132,135,138,141,144,147,150,153,156,159,162,165,168,171,174,177,180,183,186,189,192,195,198,201,204,207,210,213,216,219,222,225,228,231,234,237,240,243,246,249,252,255,258,261,264,267,270,273,276,279,282,285,288,291,294,297,300,303,306,309,312,315,318,321,324,327,330,333,336,339,342,345,348,351,354,357,360,363,366,369,372,375,378,381,384,387,390,393,396,399,402,405,408,411,414,417,420,423,426,429,432,435,438,441,444,447,450,453,456,459,462,465,468,471,474,477,480,483,486,489,492,495,498,501,504,507,510,513,516,519,522,525,528,531,534,537,540,543,546,549,552,555,558,561,564,567,570,573,576,579,582,585,588,591,594,597,600],"tree_info":[0,1,2,0,1,2,0,1,2,0,1,2,0,1,2,0,1,2,0,1,2,0,1,2,0,1,2,0,1,2,0,1,2,0,1,2,0,1,2,0,1,2,0,1,2,0,1,2,0,1,2,0,1,2,0,1,2,0,1,2,0,1,2,0,1,2,0,1,2,0,1,2,0,1,2,0,1,2,0,1,2,0,1,2,0,1,2,0,1,2,0,1,2,0,1,2,0,1,2,0,1,2,0,1,2,0,1,2,0,1,2,0,1,2,0,1,2,0,1,2,0,1,2,0,1,2,0,1,2,0,1,2,0,1,2,0,1,2,0,1,2,0,1,2,0,1,2,0,1,2,0,1,2,0,1,2,0,1,2,0,1,2,0,1,2,0,1,2,0,1,2,0,1,2,0,1,2,0,1,2,0,1,2,0,1,2,0,1,2,0,1,2,0,1,2,0,1,2,0,1,2,0,1,2,0,1,2,0,1,2,0,1,2,0,1,2,0,1,2,0,1,2,0,1,2,0,1,2,0,1,2,0,1,2,0,1,2,0,1,2,0,1,2,0,1,2,0,1,2,0,1,2,0,1,2,0,1,2,0,1,2,0,1,2,0,1,2,0,1,2,0,1,2,0,1,2,0,1,2,0,1,2,0,1,2,0,1,2,0,1,2,0,1,2,0,1,2,0,1,2,0,1,2,0,1,2,0,1,2,0,1,2,0,1,2,0,1,2,0,1,2,0,1,2,0,1,2,0,1,2,0,1,2,0,1,2,0,1,2,0,1,2,0,1,2,0,1,2,0,1,2,0,1,2,0,1,2,0,1,2,0,1,2,0,1,2,0,1,2,0,1,2,0,1,2,0,1,2,0,1,2,0,1,2,0,1,2,0,1,2,0,1,2,0,1,2,0,1,2,0,1,2,0,1,2,0,1,2,0,1,2,0,1,2,0,1,2,0,1,2,0,1,2,0,1,2,0,1,2,0,1,2,0,1,2,0,1,2,0,1,2,0,1,2,0,1,2,0,1,2,0,1,2,0,1,2,0,1,2,0,1,2,0,1,2,0,1,2,0,1,2,0,1,2,0,1,2,0,1,2,0,1,2,0,1,2,0,1,2,0,1,2,0,1,2,0,1,2,0,1,2,0,1,2,0,1,2,0,1,2,0,1,2,0,1,2,0,1,2,0,1,2,0,1,2,0,1,2,0,1,2,0,1,2,0,1,2,0,1,2,0,1,2,0,1,2,0,1,2,0,1,2,0,1,2,0,1,2,0,1,2,0,1,2,0,1,2,0,1,2,0,1,2,0,1,2,0,1,2,0,1,2,0,1,2,0,1,2,0,1,2,0,1,2,0,1,2,0,1,2],"trees":[{"base_weights":[1.5366338E-1,1.022757E0,-5.2676734E-2,-1.4854582E-1,1.2003186E0,-1.6165712E-1,1.0008439E0,1.0783912E-2,-4.7049692E-1,-3.2284136E-3,1.2645967E0,1.8176347E-1,-6.8595046E-1,-9.16445E-3,1.1344571E0,-7.996514E-4,-1.2042549E-2,-7.996514E-4,2.620981E-2,-5.2668774E-1,5.595464E-1,-7.219445E-1,1.6649634E-2,2.1385972E-1,2.5653321E-2,2.519239E-1,-6.7895484E-1,-4.9154904E-1,9.012164E-1,-7.5933164E-1,-4.3487614E-1,-1.100565E-2,1.5929945E-2,1.5929945E-2,-9.16445E-3,1.4356343E-2,-1.100565E-2,-1.5261689E-2,4.2771944E-3,-1.2516789E-2,7.075968E-3,2.157495E-2,-1.3353026E-2,-1.5493926E-2,-4.978444E-3,7.5651463E-3,-1.1927418E-2],"categories":[],"categories_nodes":[],"categories_segments":[],"categories_sizes":[],"default_left":[0,0,0,0,0,0,0,0,0,0,0,0,0,0,0,0,0,0,0,0,0,0,0,0,0,0,0,0,0,0,0,0,0,0,0,0,0,0,0,0,0,0,0,0,0,0,0],"id":0,"left_children":[1,3,5,7,9,11,13,-1,15,-1,17,19,21,-1,23,-1,-1,-1,-1,25,27,29,31,33,-1,35,37,39,41,43,45,-1,-1,-1,-1,-1,-1,-1,-1,-1,-1,-1,-1,-1,-1,-1,-1],"loss_changes":[4.687876E1,1.0607937E1,2.4498047E1,1.9123855E0,4.025387E0,3.4866676E1,4.420788E0,0E0,2.9534352E-1,0E0,2.5551682E0,3.1709846E1,1.9485855E0,0E0,2.266079E0,0E0,0E0,0E0,0E0,5.071974E0,2.8110125E1,4.5183945E-1,2.5203595E0,1.8459078E0,0E0,3.194784E0,2.7806263E0,2.4403567E0,1.7012009E1,3.0224228E-1,1.635505E0,0E0,0E0,0E0,0E0,0E0,0E0,0E0,0E0,0E0,0E0,0E0,0E0,0E0,0E0,0E0,0E0],"parents":[2147483647,0,0,1,1,2,2,3,3,4,4,5,5,6,6,8,8,10,10,11,11,12,12,14,14,19,19,20,20,21,21,22,22,23,23,25,25,26,26,27,27,28,28,29,29,30,30],"right_children":[2,4,6,8,10,12,14,-1,16,-1,18,20,22,-1,24,-1,-1,-1,-1,26,28,30,32,34,-1,36,38,40,42,44,46,-1,-1,-1,-1,-1,-1,-1,-1,-1,-1,-1,-1,-1,-1,-1,-1],"split_conditions":[-8.4560835E-1,-1.4071463E0,7.5245607E-1,-3.1456235E-1,-1.9697248E0,4.6894717E-1,-1.5434029E0,1.0783912E-2,-1.0365483E0,-3.2284136E-3,-1.6995057E0,-7.388238E-2,1.2143849E0,-9.16445E-3,-3.1285813E-1,-7.996514E-4,-1.2042549E-2,-7.996514E-4,2.620981E-2,-7.823533E-1,-4.8909354E-1,8.7847584E-1,-2.3260021E-1,7.701289E-2,2.5653321E-2,-2.8257072E-1,1.164494E0,8.446705E-1,1.0304866E0,1.3662348E0,9.333084E-1,-1.100565E-2,1.5929945E-2,1.5929945E-2,-9.16445E-3,1.4356343E-2,-1.100565E-2,-1.5261689E-2,4.2771944E-3,-1.2516789E-2,7.075968E-3,2.157495E-2,-1.3353026E-2,-1.5493926E-2,-4.978444E-3,7.5651463E-3,-1.1927418E-2],"split_indices":[0,1,1,17,21,1,4,0,4,0,36,1,21,0,51,0,0,0,0,0,0,8,7,24,0,53,7,36,0,7,8,0,0,0,0,0,0,0,0,0,0,0,0,0,0,0,0],"split_type":[0,0,0,0,0,0,0,0,0,0,0,0,0,0,0,0,0,0,0,0,0,0,0,0,0,0,0,0,0,0,0,0,0,0,0,0,0,0,0,0,0,0,0,0,0,0,0],"sum_hessian":[2.601118E2,4.9147682E1,2.1096411E2,6.4912033E0,4.265648E1,1.9195416E2,1.9009953E1,1.8546295E0,4.636574E0,1.8546295E0,4.080185E1,1.16378006E2,7.557616E1,1.3909721E0,1.761898E1,1.3909721E0,3.2456017E0,1.3909721E0,3.9410877E1,4.0338192E1,7.603981E1,7.18669E1,3.709259E0,2.7819443E0,1.4837036E1,6.4912033E0,3.384699E1,1.8546295E1,5.7493515E1,6.213009E1,9.736805E0,2.318287E0,1.3909721E0,1.3909721E0,1.3909721E0,4.1729164E0,2.318287E0,3.1065044E1,2.7819443E0,1.6228008E1,2.318287E0,5.1929626E1,5.5638885E0,5.9811802E1,2.318287E0,1.3909721E0,8.345833E0],"tree_param":{"num_deleted":"0","num_feature":"60","num_nodes":"47","size_leaf_vector":"1"}},{"base_weights":[1.2573902E-1,-2.5278422E-1,7.285603E-1,-1.5305286E-2,-2.770069E-2,1.0309746E0,-5.866421E-1,7.834752E-1,-5.647397E-1,1.1473296E0,-3.8336274E-1,-1.5816328E-1,-1.4536819E-2,-1.35277E-2,1.0437328E0,-9.650832E-2,-6.919149E-1,-4.2477418E-2,1.192759E0,7.7237277E-3,-1.2838487E-2,-1.2290576E-2,1.6118705E-2,3.3617535E-1,1.1401323E0,5.8143014E-1,-1.385586E-2,-7.448238E-1,-1.0696683E-1,7.7237277E-3,-9.066228E-3,7.555714E-1,1.2816024E0,-1.0895593E-2,2.0400183E-2,2.5412887E-2,6.723507E-3,-9.066228E-3,1.7398454E-2,-1.5292782E-2,-3.0947486E-3,1.6118705E-2,-1.1926996E-2,4.0450734E-3,2.4267819E-2,-6.712498E-4,2.6269015E-2],"categories":[],"categories_nodes":[],"categories_segments":[],"categories_sizes":[],"default_left":[0,0,0,0,0,0,0,0,0,0,0,0,0,0,0,0,0,0,0,0,0,0,0,0,0,0,0,0,0,0,0,0,0,0,0,0,0,0,0,0,0,0,0,0,0,0,0],"id":1,"left_children":[1,3,5,-1,7,9,11,13,15,17,19,21,-1,-1,23,25,27,29,31,-1,-1,-1,-1,33,35,37,-1,39,41,-1,-1,43,45,-1,-1,-1,-1,-1,-1,-1,-1,-1,-1,-1,-1,-1,-1],"loss_changes":[5.950352E1,1.848501E1,4.0589672E1,0E0,4.945629E1,1.3950539E1,1.0523453E0,1.789293E1,3.9988651E0,4.1645355E0,1.6388031E0,3.1653912E0,0E0,0E0,2.262165E0,6.76778E0,1.5770359E0,8.380721E-1,1.8804474E0,0E0,0E0,0E0,0E0,4.211637E0,3.1105614E0,2.7561626E0,0E0,4.537182E-1,2.9860075E0,0E0,0E0,3.509738E0,2.5371628E0,0E0,0E0,0E0,0E0,0E0,0E0,0E0,0E0,0E0,0E0,0E0,0E0,0E0,0E0],"parents":[2147483647,0,0,1,1,2,2,4,4,5,5,6,6,7,7,8,8,9,9,10,10,11,11,14,14,15,15,16,16,17,17,18,18,23,23,24,24,25,25,27,27,28,28,31,31,32,32],"right_children":[2,4,6,-1,8,10,12,14,16,18,20,22,-1,-1,24,26,28,30,32,-1,-1,-1,-1,34,36,38,-1,40,42,-1,-1,44,46,-1,-1,-1,-1,-1,-1,-1,-1,-1,-1,-1,-1,-1,-1],"split_conditions":[4.381543E-1,-8.4560835E-1,7.5245607E-1,-1.5305286E-2,-4.7874248E-1,1.7071211E0,3.0424345E-1,-9.281645E-1,-2.917201E-1,-1.6958659E0,-6.22362E-1,3.6423972E-1,-1.4536819E-2,-1.35277E-2,-8.509004E-1,1.0891829E-1,1.2434297E0,2.2628435E-1,4.926534E-1,7.7237277E-3,-1.2838487E-2,-1.2290576E-2,1.6118705E-2,-3.4263694E-1,2.5225103E-1,-9.4417936E-1,-1.385586E-2,1.9040635E0,1.9725292E0,7.7237277E-3,-9.066228E-3,-4.0967938E-2,-1.4870424E0,-1.0895593E-2,2.0400183E-2,2.5412887E-2,6.723507E-3,-9.066228E-3,1.7398454E-2,-1.5292782E-2,-3.0947486E-3,1.6118705E-2,-1.1926996E-2,4.0450734E-3,2.4267819E-2,-6.712498E-4,2.6269015E-2],"split_indices":[1,0,1,0,0,0,0,1,0,34,9,24,0,0,22,1,2,0,1,0,0,0,0,56,1,1,0,16,0,0,0,0,55,0,0,0,0,0,0,0,0,0,0,0,0,0,0],"split_type":[0,0,0,0,0,0,0,0,0,0,0,0,0,0,0,0,0,0,0,0,0,0,0,0,0,0,0,0,0,0,0,0,0,0,0,0,0,0,0,0,0,0,0,0,0,0,0],"sum_hessian":[2.589652E2,1.5943411E2,9.953112E1,4.792239E1,1.1151172E2,8.109943E1,1.8431688E1,4.4236053E1,6.7275665E1,7.510913E1,5.9902987E0,5.068714E0,1.3362974E1,6.451091E0,3.778496E1,1.4745351E1,5.253031E1,2.7647533E0,7.2344376E1,1.3823767E0,4.607922E0,3.6863377E0,1.3823767E0,5.068714E0,3.2716248E1,6.9118834E0,7.8334675E0,4.792239E1,4.607922E0,1.3823767E0,1.3823767E0,1.3823767E1,5.852061E1,2.303961E0,2.7647533E0,2.7647533E1,5.068714E0,1.3823767E0,5.5295067E0,4.607922E1,1.8431689E0,1.3823767E0,3.2255454E0,6.9118834E0,6.9118834E0,1.3823767E0,5.7138233E1],"tree_param":{"num_deleted":"0","num_feature":"60","num_nodes":"47","size_leaf_vector":"1"}},{"base_weights":[-3.1620967E-1,9.2666197E-1,-4.5821252E-1,1.8956597E-1,3.1751085E-2,-5.399935E-1,1.0150529E0,-2.7824226E-1,2.2926066E-2,-5.7407E-1,8.527867E-1,-8.474311E-3,1.3050762E0,-1.1813642E-2,1.0865161E-2,-6.1430603E-1,-2.0818162E-1,2.5658922E-2,-7.652008E-4,2.9490087E-2,1.5990486E-3,-5.381853E-2,-6.359811E-1,3.5283256E-1,-4.9394694E-1,-1.1228565E-2,1.7547607E-2,-1.2955655E-2,4.1827154E-3,1.7055733E-2,-9.723657E-3,4.1827154E-3,-1.2617173E-2],"categories":[],"categories_nodes":[],"categories_segments":[],"categories_sizes":[],"default_left":[0,0,0,0,0,0,0,0,0,0,0,0,0,0,0,0,0,0,0,0,0,0,0,0,0,0,0,0,0,0,0,0,0],"id":2,"left_children":[1,3,5,7,-1,9,11,13,-1,15,17,-1,19,-1,-1,21,23,-1,-1,-1,-1,25,27,29,31,-1,-1,-1,-1,-1,-1,-1,-1],"loss_changes":[3.999512E1,1.1059505E1,2.487238E1,5.761544E0,0E0,9.598343E0,5.1282434E0,2.6236453E0,0E0,2.6388779E0,1.9601159E0,0E0,1.827096E0,0E0,0E0,2.0164986E0,3.4018097E0,0E0,0E0,0E0,0E0,3.9797444E0,1.7554855E0,3.5091746E0,1.4559627E0,0E0,0E0,0E0,0E0,0E0,0E0,0E0,0E0],"parents":[2147483647,0,0,1,1,2,2,3,3,5,5,6,6,7,7,9,9,10,10,12,12,15,15,16,16,21,21,22,22,23,23,24,24],"right_children":[2,4,6,8,-1,10,12,14,-1,16,18,-1,20,-1,-1,22,24,-1,-1,-1,-1,26,28,30,32,-1,-1,-1,-1,-1,-1,-1,-1],"split_conditions":[-9.1743994E-1,-8.1972134E-1,1.9725292E0,3.2223067E-1,3.1751085E-2,2.207893E0,-7.297699E-2,9.8468524E-1,2.2926066E-2,1.0250074E0,1.0053825E0,-8.474311E-3,7.873643E-1,-1.1813642E-2,1.0865161E-2,-1.6946373E0,-1.5075829E-2,2.5658922E-2,-7.652008E-4,2.9490087E-2,1.5990486E-3,3.330588E-1,2.1055691E0,5.157395E-1,-1.463473E0,-1.1228565E-2,1.7547607E-2,-1.2955655E-2,4.1827154E-3,1.7055733E-2,-9.723657E-3,4.1827154E-3,-1.2617173E-2],"split_indices":[1,0,0,58,0,58,58,50,0,31,7,0,1,0,0,12,14,0,0,0,0,0,4,1,7,0,0,0,0,0,0,0,0],"split_type":[0,0,0,0,0,0,0,0,0,0,0,0,0,0,0,0,0,0,0,0,0,0,0,0,0,0,0,0,0,0,0,0,0],"sum_hessian":[2.232066E2,2.2320662E1,2.0088596E2,1.1160331E1,1.1160331E1,1.9092137E2,9.964581E0,7.9716644E0,3.1886659E0,1.8693553E2,3.9858322E0,1.5943329E0,8.370248E0,5.9787483E0,1.9929161E0,1.6780354E2,1.9131996E1,2.3914995E0,1.5943329E0,7.174498E0,1.1957498E0,6.3773317E0,1.6142621E2,6.3773317E0,1.2754663E1,4.3844156E0,1.9929161E0,1.5943329E2,1.9929161E0,3.9858322E0,2.3914995E0,1.9929161E0,1.0761747E1],"tree_param":{"num_deleted":"0","num_feature":"60","num_nodes":"33","size_leaf_vector":"1"}},{"base_weights":[1.4945167E-1,1.0094179E0,-5.6212444E-2,-1.1557449E-2,1.1169336E0,-5.499898E-1,8.593538E-2,1.3082056E-1,1.2117854E0,-3.144051E-2,-7.0418125E-1,1.948636E-1,-3.937642E-1,1.7406939E-2,-1.0991114E-2,1.255555E0,-8.216866E-4,5.2009994E-1,-4.1021317E-1,-1.5140969E-2,-2.4598952E-1,-1.3535066E-2,2.4509947E-1,2.4388053E-1,-5.4834217E-1,2.6030645E-2,5.583529E-1,-3.2559733E-3,1.9007154E-2,7.5870794E-3,-1.3067094E-2,7.5563276E-3,-1.1524517E-2,8.3525635E-2,4.7059572E-1,6.439065E-1,-1.0135828E-2,6.1453573E-2,-6.933551E-1,-9.541241E-4,1.7406939E-2,1.6017957E-2,3.7340983E-4,1.6452042E-2,5.9518794E-4,-7.957107E-4,1.881475E-2,-1.0918553E-2,1.2924001E-2,-1.48051875E-2,-7.933078E-4],"categories":[],"categories_nodes":[],"categories_segments":[],"categories_sizes":[],"default_left":[0,0,0,0,0,0,0,0,0,0,0,0,0,0,0,0,0,0,0,0,0,0,0,0,0,0,0,0,0,0,0,0,0,0,0,0,0,0,0,0,0,0,0,0,0,0,0,0,0,0,0],"id":3,"left_children":[1,3,5,-1,7,9,11,13,15,17,19,21,23,-1,-1,25,-1,27,29,-1,31,-1,33,35,37,-1,39,-1,-1,-1,-1,-1,-1,41,43,45,-1,47,49,-1,-1,-1,-1,-1,-1,-1,-1,-1,-1,-1,-1],"loss_changes":[4.5054817E1,9.03426E0,1.4524956E1,0E0,4.1794357E0,3.675147E0,8.490714E0,3.0899792E0,2.3650475E0,2.6461453E0,6.7603874E-1,5.9410896E0,3.103455E0,0E0,0E0,5.8099365E-1,0E0,1.6773801E0,1.680575E0,0E0,1.2814372E0,0E0,4.5310736E0,2.2995138E0,2.214263E0,0E0,8.4989E-1,0E0,0E0,0E0,0E0,0E0,0E0,3.4416256E0,8.067557E0,9.967458E-1,0E0,2.3547347E0,5.814533E-1,0E0,0E0,0E0,0E0,0E0,0E0,0E0,0E0,0E0,0E0,0E0,0E0],"parents":[2147483647,0,0,1,1,2,2,4,4,5,5,6,6,7,7,8,8,9,9,10,10,11,11,12,12,15,15,17,17,18,18,20,20,22,22,23,23,24,24,26,26,33,33,34,34,35,35,37,37,38,38],"right_children":[2,4,6,-1,8,10,12,14,16,18,20,22,24,-1,-1,26,-1,28,30,-1,32,-1,34,36,38,-1,40,-1,-1,-1,-1,-1,-1,42,44,46,-1,48,50,-1,-1,-1,-1,-1,-1,-1,-1,-1,-1,-1,-1],"split_conditions":[-8.4560835E-1,-2.3572955E0,-5.196971E-1,-1.1557449E-2,-9.1825455E-1,-7.823533E-1,1.0720357E0,-2.3345691E-1,1.6998247E0,-2.8257072E-1,8.446705E-1,-7.9776084E-1,-3.2428694E-1,1.7406939E-2,-1.0991114E-2,9.6013254E-1,-8.216866E-4,-4.5248303E-1,-5.475864E-1,-1.5140969E-2,1.128041E0,-1.3535066E-2,3.4928638E-1,-8.5492596E-2,-1.0261283E0,2.6030645E-2,-6.5519446E-1,-3.2559733E-3,1.9007154E-2,7.5870794E-3,-1.3067094E-2,7.5563276E-3,-1.1524517E-2,-1.4566442E0,2.0800804E-1,-6.109664E-1,-1.0135828E-2,-6.380218E-1,9.259562E-1,-9.541241E-4,1.7406939E-2,1.6017957E-2,3.7340983E-4,1.6452042E-2,5.9518794E-4,-7.957107E-4,1.881475E-2,-1.0918553E-2,1.2924001E-2,-1.48051875E-2,-7.933078E-4],"split_indices":[0,2,0,0,55,0,0,17,32,53,36,2,58,0,0,30,0,42,15,0,36,0,3,10,32,0,17,0,0,0,0,0,0,36,28,58,0,56,40,0,0,0,0,0,0,0,0,0,0,0,0],"split_type":[0,0,0,0,0,0,0,0,0,0,0,0,0,0,0,0,0,0,0,0,0,0,0,0,0,0,0,0,0,0,0,0,0,0,0,0,0,0,0,0,0,0,0,0,0,0,0,0,0,0,0],"sum_hessian":[2.5342165E2,4.8155525E1,2.0526611E2,2.777378E0,4.5378147E1,4.5241623E1,1.6002449E2,4.1905856E0,4.118756E1,1.0645262E1,3.4596363E1,1.3089514E2,2.9129356E1,1.8742161E0,2.3163693E0,3.9795155E1,1.3924057E0,4.1822553E0,6.4630065E0,3.043271E1,4.163651E0,6.453432E0,1.2444171E2,5.5709777E0,2.3558378E1,3.652003E1,3.2751224E0,1.8567984E0,2.3254569E0,1.3897558E0,5.073251E0,1.3913523E0,2.7722986E0,7.329463E1,5.1147076E1,3.7270794E0,1.8438985E0,4.6367083E0,1.8921669E1,1.4009063E0,1.8742161E0,5.1359634E0,6.815867E1,2.7957275E1,2.31898E1,1.3904397E0,2.3366396E0,2.3068986E0,2.3298097E0,1.753131E1,1.3903601E0],"tree_param":{"num_deleted":"0","num_feature":"60","num_nodes":"51","size_leaf_vector":"1"}},{"base_weights":[1.27994E-1,-4.7589764E-1,2.3218249E-1,-1.4740121E-2,-1.8571436E-1,-4.0446097E-1,2.9537815E-1,4.9621993E-1,-4.5392594E-1,-5.258104E-1,1.0859338E-2,3.299021E-1,-1.3428073E-2,1.7371567E-2,-8.99748E-3,2.1890835E-1,-6.276627E-1,-6.568667E-1,-4.801299E-2,-1.0879839E-1,4.0814066E-1,-8.98351E-3,1.5788186E-2,-1.3972472E-2,-3.055971E-3,-6.882198E-4,-1.4372723E-2,-1.1441714E-2,1.59187E-2,5.8466804E-1,-3.9026672E-1,1.6973081E-1,5.437201E-1,-1.0030738E-2,1.833976E-2,1.3119906E-2,-1.0842721E-2,5.4497854E-4,1.52658485E-2,1.2206658E-2,-3.7345625E-3],"categories":[],"categories_nodes":[],"categories_segments":[],"categories_sizes":[],"default_left":[0,0,0,0,0,0,0,0,0,0,0,0,0,0,0,0,0,0,0,0,0,0,0,0,0,0,0,0,0,0,0,0,0,0,0,0,0,0,0,0,0],"id":4,"left_children":[1,3,5,-1,7,9,11,13,15,17,-1,19,-1,-1,-1,21,23,25,27,29,31,-1,-1,-1,-1,-1,-1,-1,-1,33,35,37,39,-1,-1,-1,-1,-1,-1,-1,-1],"loss_changes":[1.6683002E1,2.8245401E0,9.184452E0,0E0,3.8555949E0,2.673164E0,7.0819626E0,2.5328884E0,1.8637042E0,1.1530643E0,0E0,6.8791122E0,0E0,0E0,0E0,1.7923044E0,2.9746866E-1,5.4303885E-1,2.7335494E0,6.2648582E0,5.376848E0,0E0,0E0,0E0,0E0,0E0,0E0,0E0,0E0,3.8274376E0,3.9463835E0,5.2896857E0,5.340103E0,0E0,0E0,0E0,0E0,0E0,0E0,0E0,0E0],"parents":[2147483647,0,0,1,1,2,2,4,4,5,5,6,6,7,7,8,8,9,9,11,11,15,15,16,16,17,17,18,18,19,19,20,20,29,29,30,30,31,31,32,32],"right_children":[2,4,6,-1,8,10,12,14,16,18,-1,20,-1,-1,-1,22,24,26,28,30,32,-1,-1,-1,-1,-1,-1,-1,-1,34,36,38,40,-1,-1,-1,-1,-1,-1,-1,-1],"split_conditions":[-9.271234E-1,-1.2919823E0,-1.0937399E0,-1.4740121E-2,-5.502435E-1,9.259562E-1,1.4324971E0,3.7055448E-1,-5.881409E-1,6.2926465E-1,1.0859338E-2,-9.2289555E-1,-1.3428073E-2,1.7371567E-2,-8.99748E-3,-4.6961758E-1,2.0028362E-1,-5.8582115E-1,-7.726254E-1,-4.816775E-1,-2.3068066E-1,-8.98351E-3,1.5788186E-2,-1.3972472E-2,-3.055971E-3,-6.882198E-4,-1.4372723E-2,-1.1441714E-2,1.59187E-2,-7.739506E-1,-1.0769992E0,6.352873E-1,1.15033E0,-1.0030738E-2,1.833976E-2,1.3119906E-2,-1.0842721E-2,5.4497854E-4,1.52658485E-2,1.2206658E-2,-3.7345625E-3],"split_indices":[2,2,55,0,25,40,3,43,21,14,0,41,0,0,0,10,57,2,6,51,53,0,0,0,0,0,0,0,0,3,53,34,20,0,0,0,0,0,0,0,0],"split_type":[0,0,0,0,0,0,0,0,0,0,0,0,0,0,0,0,0,0,0,0,0,0,0,0,0,0,0,0,0,0,0,0,0,0,0,0,0,0,0,0,0],"sum_hessian":[2.6239618E2,3.8084602E1,2.2431157E2,1.923608E1,1.8848522E1,1.976776E1,2.0454381E2,5.080676E0,1.3767845E1,1.7917803E1,1.8499551E0,1.9812741E2,6.4164076E0,3.7045798E0,1.376096E0,2.7721355E0,1.0995709E1,1.3766871E1,4.150932E0,2.9927395E1,1.6820001E2,1.3748202E0,1.3973153E0,9.156246E0,1.8394637E0,1.3833923E0,1.2383479E1,2.7594852E0,1.3914468E0,8.329187E0,2.1598207E1,6.1792633E1,1.0640738E2,1.8320007E0,6.4971867E0,2.3169239E0,1.9281282E1,5.0674377E1,1.1118256E1,9.76653E1,8.742085E0],"tree_param":{"num_deleted":"0","num_feature":"60","num_nodes":"41","size_leaf_vector":"1"}},{"base_weights":[-3.1871295E-1,8.52399E-1,-4.6130046E-1,2.0220216E-1,3.2064114E-2,-5.770685E-1,6.553265E-1,7.9915005E-1,-4.598581E-1,-5.9240615E-1,3.9082158E-1,-1.144943E-1,1.1284068E0,-7.4830297E-3,1.0659461E0,-1.1550147E-2,1.6194917E-3,-6.319226E-1,-2.1846642E-1,1.9429693E-2,-7.4869385E-3,-4.4516867E-1,1.9575736E-2,1.3165276E0,-9.01928E-4,2.7863665E-2,4.099858E-3,-1.14790395E-1,-6.5542156E-1,5.49659E-1,-4.40457E-1,1.58563E-3,-1.1358882E-2,1.5151527E-3,2.945111E-2,1.9483574E-2,-8.898506E-3,1.6948645E-3,-1.3235491E-2,2.403375E-2,-8.423813E-3,-1.1290018E-2,1.0643531E-2],"categories":[],"categories_nodes":[],"categories_segments":[],"categories_sizes":[],"default_left":[0,0,0,0,0,0,0,0,0,0,0,0,0,0,0,0,0,0,0,0,0,0,0,0,0,0,0,0,0,0,0,0,0,0,0,0,0,0,0,0,0,0,0],"id":5,"left_children":[1,3,5,7,-1,9,11,13,15,17,19,21,23,-1,25,-1,-1,27,29,-1,-1,31,-1,33,-1,-1,-1,35,37,39,41,-1,-1,-1,-1,-1,-1,-1,-1,-1,-1,-1,-1],"loss_changes":[3.7347137E1,1.1572962E1,2.596437E1,5.981443E0,0E0,2.9016876E0,7.0710306E0,2.85142E0,5.156945E-1,2.48423E0,1.8780046E0,3.386834E0,2.6860056E0,0E0,1.5860481E0,0E0,0E0,1.8687363E0,3.3948247E0,0E0,0E0,4.9284327E-1,0E0,1.8800316E0,0E0,0E0,0E0,3.369005E0,7.746124E-1,3.4118767E0,2.0979664E0,0E0,0E0,0E0,0E0,0E0,0E0,0E0,0E0,0E0,0E0,0E0,0E0],"parents":[2147483647,0,0,1,1,2,2,3,3,5,5,6,6,7,7,8,8,9,9,10,10,11,11,12,12,14,14,17,17,18,18,21,21,23,23,27,27,28,28,29,29,30,30],"right_children":[2,4,6,8,-1,10,12,14,16,18,20,22,24,-1,26,-1,-1,28,30,-1,-1,32,-1,34,-1,-1,-1,36,38,40,42,-1,-1,-1,-1,-1,-1,-1,-1,-1,-1,-1,-1],"split_conditions":[-9.1743994E-1,-7.823533E-1,1.3092273E0,-3.497205E-1,3.2064114E-2,2.0406387E0,2.3186633E-1,-1.0350336E0,5.133869E-1,1.0250074E0,1.0053825E0,4.6688133E-1,6.26511E-1,-7.4830297E-3,1.2035609E-1,-1.1550147E-2,1.6194917E-3,-1.6946373E0,-3.6811376E-1,1.9429693E-2,-7.4869385E-3,-1.0775629E-1,1.9575736E-2,-1.1425468E0,-9.01928E-4,2.7863665E-2,4.099858E-3,-4.7361073E-1,-2.597451E0,-1.4147785E-2,1.2746065E0,1.58563E-3,-1.1358882E-2,1.5151527E-3,2.945111E-2,1.9483574E-2,-8.898506E-3,1.6948645E-3,-1.3235491E-2,2.403375E-2,-8.423813E-3,-1.1290018E-2,1.0643531E-2],"split_indices":[1,0,0,57,0,58,58,34,17,31,7,21,50,0,59,0,0,12,6,0,0,22,0,21,0,0,0,3,7,16,40,0,0,0,0,0,0,0,0,0,0,0,0],"split_type":[0,0,0,0,0,0,0,0,0,0,0,0,0,0,0,0,0,0,0,0,0,0,0,0,0,0,0,0,0,0,0,0,0,0,0,0,0,0,0,0,0,0,0],"sum_hessian":[2.2029962E2,2.3370768E1,1.9692886E2,1.3204777E1,1.016599E1,1.7886768E2,1.8061178E1,6.834958E0,6.369818E0,1.7645937E2,2.408316E0,7.1630583E0,1.089812E1,1.1917138E0,5.6432443E0,5.1760435E0,1.1937749E0,1.5897012E2,1.748925E1,1.2159407E0,1.1923753E0,5.954785E0,1.2082734E0,9.287406E0,1.6107147E0,3.641116E0,2.0021286E0,7.1655445E0,1.5180457E2,3.5902658E0,1.3898984E1,1.1967932E0,4.7579913E0,1.2033817E0,8.084023E0,1.2131263E0,5.952418E0,1.1868874E0,1.5061769E2,2.0055547E0,1.5847113E0,1.26990385E1,1.1999449E0],"tree_param":{"num_deleted":"0","num_feature":"60","num_nodes":"43","size_leaf_vector":"1"}},{"base_weights":[1.3339663E-1,3.854329E-1,-3.252365E-1,-5.0990975E-1,4.8374382E-1,-6.7812234E-1,9.8203933E-1,1.3182272E-1,-1.4404263E-2,2.8282583E-1,8.023539E-1,-7.133324E-1,-1.1360262E-1,-9.07966E-3,1.1086365E0,-1.0185302E-2,1.2790699E-2,4.7400522E-1,4.201337E-2,9.4174725E-1,1.778802E-1,-7.262857E-1,-7.2821206E-4,1.0696683E-2,-1.1507236E-2,2.0987225E-1,2.495773E-2,-1.4806573E-1,5.6168747E-1,8.2555866E-1,-9.388381E-2,-4.9499143E-3,1.0063894E0,6.7480654E-1,-1.25997085E-2,-7.397613E-1,-7.348224E-4,7.4611795E-3,-8.2590483E-4,1.5444948E-2,-9.783806E-3,1.2442579E-2,-6.177567E-3,-8.474557E-4,2.1287274E-2,1.6421458E-3,-1.0673803E-2,-9.08561E-3,2.1227337E-2,-4.9689775E-3,2.187786E-2,-1.5068795E-2,-4.8659565E-3],"categories":[],"categories_nodes":[],"categories_segments":[],"categories_sizes":[],"default_left":[0,0,0,0,0,0,0,0,0,0,0,0,0,0,0,0,0,0,0,0,0,0,0,0,0,0,0,0,0,0,0,0,0,0,0,0,0,0,0,0,0,0,0,0,0,0,0,0,0,0,0,0,0],"id":6,"left_children":[1,3,5,7,9,11,13,15,-1,17,19,21,23,-1,25,-1,-1,27,29,31,33,35,-1,-1,-1,37,-1,39,41,43,45,-1,47,49,-1,51,-1,-1,-1,-1,-1,-1,-1,-1,-1,-1,-1,-1,-1,-1,-1,-1,-1],"loss_changes":[3.100672E1,1.5462933E1,4.4624542E1,2.4689002E0,9.777176E0,1.4221611E0,4.259794E0,2.0140002E0,0E0,4.4635406E0,5.0460663E0,5.9607315E-1,1.9932892E0,0E0,2.1510086E0,0E0,0E0,3.0389261E0,4.7835007E0,3.9952888E0,5.3077354E0,6.1964417E-1,0E0,0E0,0E0,1.706881E-1,0E0,2.7279227E0,2.7022572E0,1.4201798E0,3.0285196E0,0E0,4.209564E0,3.3722937E0,0E0,2.7999115E-1,0E0,0E0,0E0,0E0,0E0,0E0,0E0,0E0,0E0,0E0,0E0,0E0,0E0,0E0,0E0,0E0,0E0],"parents":[2147483647,0,0,1,1,2,2,3,3,4,4,5,5,6,6,7,7,9,9,10,10,11,11,12,12,14,14,17,17,18,18,19,19,20,20,21,21,25,25,27,27,28,28,29,29,30,30,32,32,33,33,35,35],"right_children":[2,4,6,8,10,12,14,16,-1,18,20,22,24,-1,26,-1,-1,28,30,32,34,36,-1,-1,-1,38,-1,40,42,44,46,-1,48,50,-1,52,-1,-1,-1,-1,-1,-1,-1,-1,-1,-1,-1,-1,-1,-1,-1,-1,-1],"split_conditions":[4.7035787E-1,-1.2358732E0,7.5245607E-1,3.1501487E-1,1.4667962E-1,1.2143849E0,-1.5434029E0,-2.8590798E-1,-1.4404263E-2,1.2632866E-1,9.1112727E-1,1.9052622E0,-5.009255E-1,-9.07966E-3,-3.1285813E-1,-1.0185302E-2,1.2790699E-2,-1.0399094E0,-9.0377384E-1,-1.3576682E0,4.931274E-1,7.496788E-1,-7.2821206E-4,1.0696683E-2,-1.1507236E-2,-2.6898822E-1,2.495773E-2,-1.246938E0,1.1921518E0,-9.271021E-1,6.020717E-1,-4.9499143E-3,-2.0517392E0,-6.7202735E-1,-1.25997085E-2,1.3028195E0,-7.348224E-4,7.4611795E-3,-8.2590483E-4,1.5444948E-2,-9.783806E-3,1.2442579E-2,-6.177567E-3,-8.474557E-4,2.1287274E-2,1.6421458E-3,-1.0673803E-2,-9.08561E-3,2.1227337E-2,-4.9689775E-3,2.187786E-2,-1.5068795E-2,-4.8659565E-3],"split_indices":[1,55,1,58,1,21,4,49,0,37,51,41,58,0,51,0,0,6,39,32,47,1,0,0,0,15,0,8,5,31,14,0,45,47,0,27,0,0,0,0,0,0,0,0,0,0,0,0,0,0,0,0,0],"split_type":[0,0,0,0,0,0,0,0,0,0,0,0,0,0,0,0,0,0,0,0,0,0,0,0,0,0,0,0,0,0,0,0,0,0,0,0,0,0,0,0,0,0,0,0,0,0,0,0,0,0,0,0,0],"sum_hessian":[2.661579E2,1.7186899E2,9.428891E1,1.6590286E1,1.552787E2,7.4625725E1,1.9663185E1,4.1870008E0,1.2403286E1,9.638517E1,5.8893536E1,6.9996315E1,4.6294065E0,1.3835212E0,1.8279665E1,1.8490936E0,2.3379073E0,5.318979E1,4.3195377E1,4.7731068E1,1.1162464E1,6.86105E1,1.3858225E0,1.8596681E0,2.7697382E0,2.788561E0,1.5491103E1,6.4859385E0,4.670385E1,5.6343584E0,3.756102E1,2.3148725E0,4.54162E1,7.013249E0,4.1492157E0,6.722393E1,1.3865651E0,1.3961589E0,1.392402E0,1.4121903E0,5.073748E0,4.393866E1,2.765193E0,1.3932364E0,4.2411222E0,2.7407183E1,1.0153836E1,1.3839405E0,4.4032257E1,2.316694E0,4.6965547E0,6.491772E1,2.3062134E0],"tree_param":{"num_deleted":"0","num_feature":"60","num_nodes":"53","size_leaf_vector":"1"}},{"base_weights":[1.371883E-1,-2.1691743E-1,6.869246E-1,-1.48712E-2,-9.862274E-2,9.6468556E-1,-5.770454E-1,6.808411E-2,-5.541394E-1,1.0446786E0,-1.2199493E-2,-1.44909E-2,2.4160877E-2,1.4109716E-1,-5.9480566E-1,2.3614217E-1,-6.550791E-1,1.0861641E0,-4.8751193E-3,1.5755333E-2,-1.0796908E-2,4.9161664E-3,4.785966E-1,-1.3676722E-2,-6.655945E-4,1.3095011E-2,-8.971097E-3,-1.4934029E-2,-4.4459064E-2,4.1359776E-1,1.166393E0,4.3884325E-3,-5.253927E-3,1.5687551E-2,-1.6823461E-3,-1.0791218E-2,1.0851662E-2,-8.070456E-3,1.94609E-2,2.4084777E-2,1.1121137E-3],"categories":[],"categories_nodes":[],"categories_segments":[],"categories_sizes":[],"default_left":[0,0,0,0,0,0,0,0,0,0,0,0,0,0,0,0,0,0,0,0,0,0,0,0,0,0,0,0,0,0,0,0,0,0,0,0,0,0,0,0,0],"id":7,"left_children":[1,3,5,-1,7,9,11,13,15,17,-1,-1,19,21,23,25,27,29,-1,-1,-1,31,33,-1,-1,-1,-1,-1,35,37,39,-1,-1,-1,-1,-1,-1,-1,-1,-1,-1],"loss_changes":[5.04027E1,9.755927E0,3.6149155E1,0E0,9.908812E0,1.1153671E1,1.6926665E0,4.7328477E0,2.9415855E0,4.5313263E0,0E0,0E0,2.444836E0,4.011478E0,4.6325707E-1,1.6384885E0,1.7148132E0,3.7002335E0,0E0,0E0,0E0,3.687563E0,4.3843412E0,0E0,0E0,0E0,0E0,0E0,1.7866161E0,4.8773985E0,2.8212814E0,0E0,0E0,0E0,0E0,0E0,0E0,0E0,0E0,0E0,0E0],"parents":[2147483647,0,0,1,1,2,2,4,4,5,5,6,6,7,7,8,8,9,9,12,12,13,13,14,14,15,15,16,16,17,17,21,21,22,22,28,28,29,29,30,30],"right_children":[2,4,6,-1,8,10,12,14,16,18,-1,-1,20,22,24,26,28,30,-1,-1,-1,32,34,-1,-1,-1,-1,-1,36,38,40,-1,-1,-1,-1,-1,-1,-1,-1,-1,-1],"split_conditions":[4.381543E-1,-7.649028E-1,7.5245607E-1,-1.48712E-2,2.3830558E-1,1.7603257E0,9.325763E-1,3.3897382E-1,-1.0378835E0,1.5521032E0,-1.2199493E-2,-1.44909E-2,6.369129E-1,8.125089E-1,1.9473621E-1,-1.9421345E-1,1.1345713E0,4.7817203E-1,-4.8751193E-3,1.5755333E-2,-1.0796908E-2,2.049281E-1,1.4253272E-1,-1.3676722E-2,-6.655945E-4,1.3095011E-2,-8.971097E-3,-1.4934029E-2,4.649348E-1,-6.3947296E-1,1.0625912E0,4.3884325E-3,-5.253927E-3,1.5687551E-2,-1.6823461E-3,-1.0791218E-2,1.0851662E-2,-8.070456E-3,1.94609E-2,2.4084777E-2,1.1121137E-3],"split_indices":[1,1,1,0,2,2,45,1,35,55,0,0,2,59,25,24,2,1,0,0,0,41,7,0,0,0,0,0,7,58,58,0,0,0,0,0,0,0,0,0,0],"split_type":[0,0,0,0,0,0,0,0,0,0,0,0,0,0,0,0,0,0,0,0,0,0,0,0,0,0,0,0,0,0,0,0,0,0,0,0,0,0,0,0,0],"sum_hessian":[2.5715506E2,1.567755E2,1.0037955E2,2.7786333E1,1.2898917E2,8.248911E1,1.7890434E1,9.5052895E1,3.393627E1,7.882153E1,3.6675801E0,1.4201174E1,3.689261E0,8.6331215E1,8.72168E0,3.6919172E0,3.0244352E1,7.651487E1,2.306662E0,1.3987566E0,2.2905045E0,6.2234264E1,2.4096952E1,7.3400855E0,1.3815942E0,2.3182983E0,1.3736188E0,2.6104557E1,4.1397963E0,8.810546E0,6.770432E1,3.4644756E1,2.758951E1,1.5357635E1,8.739318E0,2.2896364E0,1.85016E0,3.693941E0,5.116605E0,6.5392204E1,2.3121207E0],"tree_param":{"num_deleted":"0","num_feature":"60","num_nodes":"41","size_leaf_vector":"1"}},{"base_weights":[-3.0687675E-1,1.1316135E0,-4.2720714E-1,-5.0647415E-2,3.1724785E-2,6.977561E-1,-5.172005E-1,-1.0677984E-2,1.911065E-2,1.9847707E-1,1.1528199E0,-5.563321E-1,1.0219437E0,-2.5423604E-1,1.9032897E-2,1.4697474E-3,2.6711492E-2,-5.866555E-1,8.7294614E-1,1.4708182E-3,2.6002197E-2,1.025566E-2,-1.0951111E-2,1.0605196E-2,-5.96989E-1,2.3350345E-2,1.4332918E-3,-1.5692413E-3,-1.24304425E-2],"categories":[],"categories_nodes":[],"categories_segments":[],"categories_sizes":[],"default_left":[0,0,0,0,0,0,0,0,0,0,0,0,0,0,0,0,0,0,0,0,0,0,0,0,0,0,0,0,0],"id":8,"left_children":[1,3,5,7,-1,9,11,-1,-1,13,15,17,19,21,-1,-1,-1,23,25,-1,-1,-1,-1,-1,27,-1,-1,-1,-1],"loss_changes":[3.8677654E1,9.382719E0,2.1048992E1,3.318634E0,0E0,3.3069496E0,1.1999218E1,0E0,0E0,3.1839938E0,1.4667721E0,8.561714E0,1.2387676E0,1.6707928E0,0E0,0E0,0E0,2.4225311E0,9.21947E-1,0E0,0E0,0E0,0E0,0E0,2.2571335E0,0E0,0E0,0E0,0E0],"parents":[2147483647,0,0,1,1,2,2,3,3,5,5,6,6,9,9,10,10,11,11,12,12,13,13,17,17,18,18,24,24],"right_children":[2,4,6,8,-1,10,12,-1,-1,14,16,18,20,22,-1,-1,-1,24,26,-1,-1,-1,-1,-1,28,-1,-1,-1,-1],"split_conditions":[-1.2287283E0,3.1501487E-1,-9.4417936E-1,6.3514596E-1,3.1724785E-2,-1.061319E-1,2.053032E0,-1.0677984E-2,1.911065E-2,8.4935373E-1,-1.0332744E0,1.7603257E0,1.1696606E-1,-5.452969E-1,1.9032897E-2,1.4697474E-3,2.6711492E-2,-2.8107336E0,5.7004903E-2,1.4708182E-3,2.6002197E-2,1.025566E-2,-1.0951111E-2,1.0605196E-2,-1.3121885E0,2.3350345E-2,1.4332918E-3,-1.5692413E-3,-1.24304425E-2],"split_indices":[55,58,1,31,0,23,55,0,0,6,7,2,38,11,0,0,0,36,15,0,0,0,0,0,4,0,0,0,0],"split_type":[0,0,0,0,0,0,0,0,0,0,0,0,0,0,0,0,0,0,0,0,0,0,0,0,0,0,0,0,0],"sum_hessian":[2.1965584E2,1.6307194E1,2.0334865E2,4.775926E0,1.1531268E1,1.4562061E1,1.8878658E2,3.5434468E0,1.2324793E0,7.6285024E0,6.9335585E0,1.8472855E2,4.0580363E0,5.178351E0,2.450152E0,1.2070347E0,5.726524E0,1.8146808E2,3.2604659E0,1.2070384E0,2.850998E0,1.225503E0,3.9528477E0,1.2022734E0,1.8026581E2,2.0498335E0,1.2106324E0,8.333319E0,1.719325E2],"tree_param":{"num_deleted":"0","num_feature":"60","num_nodes":"29","size_leaf_vector":"1"}},{"base_weights":[1.2991221E-1,1.007032E0,-7.3869966E-2,-3.6094576E-1,1.1079481E0,-5.214854E-1,5.6533393E-2,-7.8298163E-4,-1.0090884E-2,1.1442037E0,-9.492987E-4,1.6821962E-2,-6.789414E-1,-6.462793E-1,1.17969185E-1,5.733318E-1,1.2174617E0,5.7134396E-1,-4.0861034E-1,7.4772118E-3,-7.2903156E-1,-7.145055E-4,-1.4227342E-2,2.8351888E-1,-9.1794476E-2,1.8041603E-2,-9.116598E-3,7.2557037E-3,2.478638E-2,-3.3188243E-3,1.9471424E-2,7.408111E-3,-1.2996631E-2,-7.3227606E-4,-1.5101962E-2,4.8750204E-1,3.6487944E-2,5.436501E-1,-2.1633004E-1,1.3088526E-2,-1.2529413E-3,6.177126E-3,-6.826585E-3,1.575362E-2,-1.0054704E-2,8.855735E-3,-6.9665187E-3],"categories":[],"categories_nodes":[],"categories_segments":[],"categories_sizes":[],"default_left":[0,0,0,0,0,0,0,0,0,0,0,0,0,0,0,0,0,0,0,0,0,0,0,0,0,0,0,0,0,0,0,0,0,0,0,0,0,0,0,0,0,0,0,0,0,0,0],"id":9,"left_children":[1,3,5,7,9,11,13,-1,-1,15,-1,17,19,21,23,25,27,29,31,-1,33,-1,-1,35,37,-1,-1,-1,-1,-1,-1,-1,-1,-1,-1,39,41,43,45,-1,-1,-1,-1,-1,-1,-1,-1],"loss_changes":[4.793524E1,7.3784103E0,1.2766854E1,1.7558324E-1,2.0366783E0,4.192464E0,7.4116225E0,0E0,0E0,1.2225342E0,0E0,3.0972166E0,2.2864552E0,5.2343655E-1,5.480711E0,2.8177738E0,2.9408264E-1,1.8480663E0,1.6410707E0,0E0,6.3643456E-1,0E0,0E0,4.418309E0,5.6603656E0,0E0,0E0,0E0,0E0,0E0,0E0,0E0,0E0,0E0,0E0,4.4616604E0,4.3139563E0,3.399456E0,5.311574E0,0E0,0E0,0E0,0E0,0E0,0E0,0E0,0E0],"parents":[2147483647,0,0,1,1,2,2,3,3,4,4,5,5,6,6,9,9,11,11,12,12,13,13,14,14,15,15,16,16,17,17,18,18,20,20,23,23,24,24,35,35,36,36,37,37,38,38],"right_children":[2,4,6,8,10,12,14,-1,-1,16,-1,18,20,22,24,26,28,30,32,-1,34,-1,-1,36,38,-1,-1,-1,-1,-1,-1,-1,-1,-1,-1,40,42,44,46,-1,-1,-1,-1,-1,-1,-1,-1],"split_conditions":[-8.4560835E-1,-1.3285141E0,-5.196971E-1,3.1307024E-1,2.1804366E0,-7.823533E-1,-1.2875935E0,-7.8298163E-4,-1.0090884E-2,-6.244069E-1,-9.492987E-4,-2.8257072E-1,-1.6945713E0,-8.143709E-1,1.7867664E-1,8.346433E-1,-2.539501E0,-4.5248303E-1,-9.214935E-1,7.4772118E-3,-1.4506888E0,-7.145055E-4,-1.4227342E-2,2.7835637E-1,-1.03393E0,1.8041603E-2,-9.116598E-3,7.2557037E-3,2.478638E-2,-3.3188243E-3,1.9471424E-2,7.408111E-3,-1.2996631E-2,-7.3227606E-4,-1.5101962E-2,5.4908264E-1,-4.6351913E-1,7.3503137E-1,-9.2393774E-1,1.3088526E-2,-1.2529413E-3,6.177126E-3,-6.826585E-3,1.575362E-2,-1.0054704E-2,8.855735E-3,-6.9665187E-3],"split_indices":[0,55,0,22,47,0,55,0,0,19,0,53,40,41,29,23,51,42,23,0,47,0,0,0,33,0,0,0,0,0,0,0,0,0,0,16,29,47,21,0,0,0,0,0,0,0,0],"split_type":[0,0,0,0,0,0,0,0,0,0,0,0,0,0,0,0,0,0,0,0,0,0,0,0,0,0,0,0,0,0,0,0,0,0,0,0,0,0,0,0,0,0,0,0,0,0,0],"sum_hessian":[2.6676593E2,4.9550186E1,2.1721574E2,3.2271762E0,4.632301E1,4.8328156E1,1.6888759E2,1.3884224E0,1.8387539E0,4.4923073E1,1.3999376E0,1.1139124E1,3.718903E1,1.2811148E1,1.5607643E2,6.1129985E0,3.8810074E1,4.6869855E0,6.452138E0,1.3954527E0,3.579358E1,1.3833715E0,1.1427776E1,8.7035034E1,6.9041405E1,4.7266355E0,1.3863633E0,1.4065899E0,3.7403484E1,1.8617783E0,2.8252072E0,1.3988984E0,5.05324E0,1.3858258E0,3.4407753E1,4.713794E1,3.989709E1,1.0762118E1,5.827929E1,3.601949E1,1.111845E1,2.3289919E1,1.6607174E1,8.927373E0,1.8347455E0,9.330954E0,4.8948334E1],"tree_param":{"num_deleted":"0","num_feature":"60","num_nodes":"47","size_leaf_vector":"1"}},{"base_weights":[1.1643286E-1,-2.2659263E-1,6.676949E-1,-1.4817238E-2,-1.0076163E-1,9.629598E-1,-5.8413506E-1,5.655272E-2,-5.490107E-1,1.0531291E0,-1.2419184E-2,-1.4418663E-2,-4.4065043E-2,1.9269653E-1,-2.602085E-1,-6.246428E-1,7.1721743E-3,-5.145433E-2,1.094115E0,1.5579364E-2,-1.1264062E-2,-2.4747117E-1,3.6389896E-1,-3.6505088E-1,1.743226E-2,-4.4741403E-2,-7.077903E-1,7.452888E-3,-9.114736E-3,-3.053404E-3,1.1269524E0,-1.2620804E-2,6.369287E-3,-5.973985E-3,9.479191E-3,-9.482682E-3,9.442554E-3,1.5569366E-2,-1.12731885E-2,-5.642318E-4,-1.482787E-2,2.2991108E-2,-7.399777E-4],"categories":[],"categories_nodes":[],"categories_segments":[],"categories_sizes":[],"default_left":[0,0,0,0,0,0,0,0,0,0,0,0,0,0,0,0,0,0,0,0,0,0,0,0,0,0,0,0,0,0,0,0,0,0,0,0,0,0,0,0,0,0,0],"id":10,"left_children":[1,3,5,-1,7,9,11,13,15,17,-1,-1,19,21,23,25,-1,27,29,-1,-1,31,33,35,-1,37,39,-1,-1,-1,41,-1,-1,-1,-1,-1,-1,-1,-1,-1,-1,-1,-1],"loss_changes":[5.0457954E1,1.0585734E1,3.837404E1,0E0,9.445744E0,1.2529762E1,1.4566398E0,4.351187E0,2.611291E0,3.6348267E0,0E0,0E0,2.633476E0,5.3898563E0,3.9262118E0,1.5338001E0,0E0,8.1846434E-1,3.294258E0,0E0,0E0,4.6052856E0,3.8636522E0,2.829525E0,0E0,2.6340113E0,6.2598133E-1,0E0,0E0,0E0,2.0005188E0,0E0,0E0,0E0,0E0,0E0,0E0,0E0,0E0,0E0,0E0,0E0,0E0],"parents":[2147483647,0,0,1,1,2,2,4,4,5,5,6,6,7,7,8,8,9,9,12,12,13,13,14,14,15,15,17,17,18,18,21,21,22,22,23,23,25,25,26,26,30,30],"right_children":[2,4,6,-1,8,10,12,14,16,18,-1,-1,20,22,24,26,-1,28,30,-1,-1,32,34,36,-1,38,40,-1,-1,-1,42,-1,-1,-1,-1,-1,-1,-1,-1,-1,-1,-1,-1],"split_conditions":[4.4084367E-1,-7.4843043E-1,7.5245607E-1,-1.4817238E-2,2.3830558E-1,1.7603257E0,9.325763E-1,1.4667962E-1,1.2093881E0,-1.6958659E0,-1.2419184E-2,-1.4418663E-2,6.369129E-1,-3.826401E-1,1.876861E0,-1.2808169E0,7.1721743E-3,-3.342631E-2,-2.560536E0,1.5579364E-2,-1.1264062E-2,1.2632866E-1,-9.161605E-1,1.0877572E0,1.743226E-2,-3.122129E-1,-1.7026994E0,7.452888E-3,-9.114736E-3,-3.053404E-3,2.0406387E0,-1.2620804E-2,6.369287E-3,-5.973985E-3,9.479191E-3,-9.482682E-3,9.442554E-3,1.5569366E-2,-1.12731885E-2,-5.642318E-4,-1.482787E-2,2.2991108E-2,-7.399777E-4],"split_indices":[1,1,1,0,2,2,45,1,47,34,0,0,2,38,43,3,0,28,41,0,0,37,54,59,0,23,10,0,0,0,58,0,0,0,0,0,0,0,0,0,0,0,0],"split_type":[0,0,0,0,0,0,0,0,0,0,0,0,0,0,0,0,0,0,0,0,0,0,0,0,0,0,0,0,0,0,0,0,0,0,0,0,0,0,0,0,0,0,0],"sum_hessian":[2.6503638E2,1.6373834E2,1.0129802E2,3.1226871E1,1.3251147E2,8.215189E1,1.9146132E1,9.873424E1,3.3777237E1,7.804411E1,4.1077757E0,1.5009404E1,4.136728E0,6.932853E1,2.9405704E1,3.1466877E1,2.3103607E0,2.7831156E0,7.5261E1,1.4064543E0,2.7302732E0,1.928937E1,5.003916E1,2.7532766E1,1.8729376E0,4.1388845E0,2.7327991E1,1.396462E0,1.3866537E0,1.8376799E0,7.342332E1,1.1428523E1,7.8608465E0,6.8836355E0,4.3155525E1,2.4742504E1,2.7902615E0,1.4068642E0,2.7320201E0,1.3742945E0,2.5953697E1,7.203679E1,1.3865306E0],"tree_param":{"num_deleted":"0","num_feature":"60","num_nodes":"43","size_leaf_vector":"1"}},{"base_weights":[-2.9155126E-1,8.916955E-1,-4.4237944E-1,1.1431962E0,-1.0619186E-2,6.735355E-1,-5.218005E-1,3.4589884E-1,1.325909E0,-2.8523698E-1,9.9323404E-1,-5.861684E-1,6.283569E-1,-9.078267E-3,1.8541541E-2,1.4027616E-3,1.4147575E0,1.5475859E-3,-9.1396915E-3,1.2160161E-2,2.7080376E-2,-6.024798E-1,1.9186283E-2,-9.672634E-3,1.0216432E0,3.0318337E-2,1.5199911E-3,-8.428671E-3,1.01907225E-2,1.0560964E-2,-6.1334497E-1,2.6398934E-2,-7.426003E-3,1.0491906E-2,-1.248695E-2],"categories":[],"categories_nodes":[],"categories_segments":[],"categories_sizes":[],"default_left":[0,0,0,0,0,0,0,0,0,0,0,0,0,0,0,0,0,0,0,0,0,0,0,0,0,0,0,0,0,0,0,0,0,0,0],"id":11,"left_children":[1,3,5,7,-1,9,11,13,15,17,19,21,23,-1,-1,-1,25,-1,-1,27,-1,29,-1,-1,31,-1,-1,-1,-1,-1,33,-1,-1,-1,-1],"loss_changes":[4.017966E1,9.743525E0,1.793438E1,2.7486534E0,0E0,4.4575295E0,1.4121761E1,2.9577343E0,1.8598576E0,2.9582843E-1,3.6773853E0,5.0259895E0,5.0109954E0,0E0,0E0,0E0,2.098549E0,0E0,0E0,1.0374651E0,0E0,2.476139E0,0E0,0E0,3.79395E0,0E0,0E0,0E0,0E0,0E0,2.506195E0,0E0,0E0,0E0,0E0],"parents":[2147483647,0,0,1,1,2,2,3,3,5,5,6,6,7,7,8,8,9,9,10,10,11,11,12,12,16,16,19,19,21,21,24,24,30,30],"right_children":[2,4,6,8,-1,10,12,14,16,18,20,22,24,-1,-1,-1,26,-1,-1,28,-1,30,-1,-1,32,-1,-1,-1,-1,-1,34,-1,-1,-1,-1],"split_conditions":[-1.0937399E0,7.553813E-1,-1.0215168E0,-1.7257692E0,-1.0619186E-2,-3.588352E-1,1.5665933E0,6.1790276E-1,-1.0357252E0,-9.251196E-1,-1.1955076E0,2.495542E0,-1.2254045E-1,-9.078267E-3,1.8541541E-2,1.4027616E-3,1.2085955E0,1.5475859E-3,-9.1396915E-3,1.5784834E-1,2.7080376E-2,-2.8108354E0,1.9186283E-2,-9.672634E-3,8.7020516E-1,3.0318337E-2,1.5199911E-3,-8.428671E-3,1.01907225E-2,1.0560964E-2,-3.6281457E0,2.6398934E-2,-7.426003E-3,1.0491906E-2,-1.248695E-2],"split_indices":[55,59,1,57,0,39,0,59,46,30,32,55,35,0,0,0,46,0,0,34,0,35,0,0,50,0,0,0,0,0,34,0,0,0,0],"split_type":[0,0,0,0,0,0,0,0,0,0,0,0,0,0,0,0,0,0,0,0,0,0,0,0,0,0,0,0,0,0,0,0,0,0,0],"sum_hessian":[2.2192749E2,2.4535393E1,1.973921E2,2.1016478E1,3.5189147E0,1.2618188E1,1.8477391E2,4.4577003E0,1.6558779E1,3.1822994E0,9.435889E0,1.7544556E2,9.32835E0,1.9681404E0,2.4895597E0,1.2123942E0,1.5346384E1,1.1994084E0,1.9828908E0,2.8149533E0,6.620936E0,1.74217E2,1.2285637E0,2.3772182E0,6.951132E0,1.4145212E1,1.2011715E0,1.5854785E0,1.2294748E0,1.2052929E0,1.730117E2,5.768247E0,1.182885E0,1.2097849E0,1.7180193E2],"tree_param":{"num_deleted":"0","num_feature":"60","num_nodes":"35","size_leaf_vector":"1"}},{"base_weights":[1.52822E-1,9.772841E-1,-5.7971798E-2,-3.082281E-1,1.0552466E0,-5.233672E-1,9.188153E-2,-8.983932E-3,-7.78623E-4,1.1047593E0,7.931396E-4,1.0497954E-2,-5.748966E-1,-1.4200802E-2,1.6523129E-1,2.35014E-2,3.875455E-1,2.1926628E-1,-6.4630336E-1,3.2757625E-1,-3.7038773E-2,-9.235318E-3,1.5401959E-2,-1.0025808E-2,1.6957348E-2,7.191269E-3,-6.875413E-1,1.8616764E-1,6.4948994E-1,-1.6755164E-1,5.9690565E-1,-8.881436E-4,-1.461104E-2,6.186588E-3,-1.1326017E-2,1.6909292E-2,-4.715963E-3,7.8854505E-3,-7.0804004E-3,-1.0022057E-2,1.724187E-2],"categories":[],"categories_nodes":[],"categories_segments":[],"categories_sizes":[],"default_left":[0,0,0,0,0,0,0,0,0,0,0,0,0,0,0,0,0,0,0,0,0,0,0,0,0,0,0,0,0,0,0,0,0,0,0,0,0,0,0,0,0],"id":12,"left_children":[1,3,5,7,9,11,13,-1,-1,15,-1,-1,17,-1,19,-1,21,23,25,27,29,-1,-1,-1,-1,-1,31,33,35,37,39,-1,-1,-1,-1,-1,-1,-1,-1,-1,-1],"loss_changes":[4.4620716E1,5.563595E0,1.4355817E1,1.2534797E-1,2.4455223E0,3.0089579E0,9.295539E0,0E0,0E0,1.9231071E0,0E0,0E0,2.8777351E0,0E0,4.7332497E0,0E0,2.2085965E0,2.5660477E0,2.0939064E0,3.5143795E0,5.470773E0,0E0,0E0,0E0,0E0,0E0,1.160059E0,5.447235E0,4.3582935E0,5.860807E0,3.722755E0,0E0,0E0,0E0,0E0,0E0,0E0,0E0,0E0,0E0,0E0],"parents":[2147483647,0,0,1,1,2,2,3,3,4,4,5,5,6,6,9,9,12,12,14,14,16,16,17,17,18,18,19,19,20,20,26,26,27,27,28,28,29,29,30,30],"right_children":[2,4,6,8,10,12,14,-1,-1,16,-1,-1,18,-1,20,-1,22,24,26,28,30,-1,-1,-1,-1,-1,32,34,36,38,40,-1,-1,-1,-1,-1,-1,-1,-1,-1,-1],"split_conditions":[-8.4560835E-1,-1.3285141E0,-4.8909354E-1,2.4938369E-1,1.3075951E0,-1.6945713E0,-1.2875935E0,-8.983932E-3,-7.78623E-4,9.962503E-1,7.931396E-4,1.0497954E-2,-8.255981E-1,-1.4200802E-2,1.7867664E-1,2.35014E-2,5.5681054E-2,-8.565019E-2,-2.2251883E0,3.7946588E-1,9.1191185E-1,-9.235318E-3,1.5401959E-2,-1.0025808E-2,1.6957348E-2,7.191269E-3,-1.7138478E0,9.7430515E-1,1.0000399E0,-5.2364117E-1,-1.9734873E0,-8.881436E-4,-1.461104E-2,6.186588E-3,-1.1326017E-2,1.6909292E-2,-4.715963E-3,7.8854505E-3,-7.0804004E-3,-1.0022057E-2,1.724187E-2],"split_indices":[0,55,0,26,17,40,55,0,0,30,0,0,0,0,29,0,48,17,57,52,16,0,0,0,0,0,44,14,0,54,32,0,0,0,0,0,0,0,0,0,0],"split_type":[0,0,0,0,0,0,0,0,0,0,0,0,0,0,0,0,0,0,0,0,0,0,0,0,0,0,0,0,0,0,0,0,0,0,0,0,0,0,0,0,0],"sum_hessian":[2.5542258E2,5.1267525E1,2.0415504E2,2.7625575E0,4.8504967E1,4.911802E1,1.5503703E2,1.3748381E0,1.3877194E0,4.6166428E1,2.3385403E0,1.8709428E0,4.7247078E1,1.2265041E1,1.4277199E2,4.146327E1,4.7031584E0,3.7269113E0,4.3520164E1,7.885905E1,6.391294E1,1.3962512E0,3.3069072E0,1.8308098E0,1.8961014E0,1.4099436E0,4.211022E1,5.588742E1,2.2971626E1,5.3611427E1,1.0301516E1,2.7670655E0,3.9343155E1,4.8532654E1,7.354764E0,1.8844938E1,4.126689E0,1.3081824E1,4.0529602E1,1.8309332E0,8.470583E0],"tree_param":{"num_deleted":"0","num_feature":"60","num_nodes":"41","size_leaf_vector":"1"}},{"base_weights":[1.1464636E-1,-1.50111085E-2,3.2186198E-1,8.0008316E-1,1.4458452E-1,-1.26269525E-2,9.4531417E-1,-4.4478008E-1,2.3114228E-1,1.0063717E0,-9.961784E-3,7.6224613E-3,-5.241657E-1,-3.8699278E-1,3.1753048E-1,1.052963E0,-3.133242E-3,7.310536E-3,-6.1466986E-1,1.0529218E-2,-5.302238E-1,3.7227184E-1,-1.3077826E-2,8.445729E-3,2.325305E-2,-1.4234733E-2,-3.8208603E-3,-1.2741968E-2,1.2051869E-3,8.2682455E-3,-1.22594815E-2],"categories":[],"categories_nodes":[],"categories_segments":[],"categories_sizes":[],"default_left":[0,0,0,0,0,0,0,0,0,0,0,0,0,0,0,0,0,0,0,0,0,0,0,0,0,0,0,0,0,0,0],"id":13,"left_children":[1,-1,3,5,7,-1,9,11,13,15,-1,-1,17,19,21,23,-1,-1,25,-1,27,29,-1,-1,-1,-1,-1,-1,-1,-1,-1],"loss_changes":[4.7952652E1,0E0,1.8145489E1,1.2661346E1,8.181731E0,0E0,5.179985E0,1.5518618E0,7.5317726E0,2.9428673E0,0E0,0E0,1.7734809E0,2.563971E0,6.7459507E0,2.9278297E0,0E0,0E0,5.9727E-1,0E0,1.0225267E0,4.971302E0,0E0,0E0,0E0,0E0,0E0,0E0,0E0,0E0,0E0],"parents":[2147483647,0,0,2,2,3,3,4,4,6,6,7,7,8,8,9,9,12,12,13,13,14,14,15,15,18,18,20,20,21,21],"right_children":[2,-1,4,6,8,-1,10,12,14,16,-1,-1,18,20,22,24,-1,-1,26,-1,28,30,-1,-1,-1,-1,-1,-1,-1,-1,-1],"split_conditions":[-8.4560835E-1,-1.50111085E-2,-4.6274206E-1,-1.3143188E0,-1.0355656E0,-1.26269525E-2,1.4119029E0,-1.4759017E0,-2.606849E-1,1.1632603E0,-9.961784E-3,7.6224613E-3,-1.2780192E0,-4.0260664E-1,2.6326137E0,-7.848423E-1,-3.133242E-3,7.310536E-3,7.363589E-1,1.0529218E-2,6.736682E-1,1.4324971E0,-1.3077826E-2,8.445729E-3,2.325305E-2,-1.4234733E-2,-3.8208603E-3,-1.2741968E-2,1.2051869E-3,8.2682455E-3,-1.22594815E-2],"split_indices":[0,0,0,2,6,0,16,35,2,3,0,0,49,0,0,0,0,0,59,0,23,3,0,0,0,0,0,0,0,0,0],"split_type":[0,0,0,0,0,0,0,0,0,0,0,0,0,0,0,0,0,0,0,0,0,0,0,0,0,0,0,0,0,0,0],"sum_hessian":[2.651211E2,5.0720818E1,2.1440028E2,5.7033722E1,1.5736656E2,4.945226E0,5.2088497E1,1.9622185E1,1.3774437E2,5.026501E1,1.8234847E0,1.3873824E0,1.8234802E1,1.6463451E1,1.2128092E2,4.8419945E1,1.8450676E0,1.403088E0,1.6831715E1,1.8689082E0,1.45945425E1,1.1539498E2,5.885938E0,7.892226E0,4.0527718E1,1.31406555E1,3.6910594E0,1.2290987E1,2.3035553E0,1.1132676E2,4.0682225E0],"tree_param":{"num_deleted":"0","num_feature":"60","num_nodes":"31","size_leaf_vector":"1"}},{"base_weights":[-3.113461E-1,8.46137E-1,-4.5706123E-1,1.095739E0,-1.0580536E-2,-5.0690746E-1,9.194372E-1,1.2972077E0,5.1251876E-1,-5.313119E-1,2.2842707E-2,-7.470397E-3,2.4752468E-2,3.918599E-3,2.9006282E-2,2.5151746E-2,-1.0014773E-2,-5.5466855E-1,3.0711147E-1,1.4102942E-2,-5.6991297E-1,-2.7278614E-1,2.2082606E-2,7.7934423E-3,-1.17004635E-2,1.7128113E-3,-8.930832E-3],"categories":[],"categories_nodes":[],"categories_segments":[],"categories_sizes":[],"default_left":[0,0,0,0,0,0,0,0,0,0,0,0,0,0,0,0,0,0,0,0,0,0,0,0,0,0,0],"id":14,"left_children":[1,3,5,7,-1,9,11,13,15,17,-1,-1,-1,-1,-1,-1,-1,19,21,-1,23,25,-1,-1,-1,-1,-1],"loss_changes":[3.7445507E1,9.132793E0,1.39007225E1,1.8515549E0,0E0,8.237267E0,3.4235716E0,2.2896023E0,6.0288796E0,3.842537E0,0E0,0E0,0E0,0E0,0E0,0E0,0E0,3.912506E0,2.9476862E0,0E0,2.854744E0,2.9460207E-1,0E0,0E0,0E0,0E0,0E0],"parents":[2147483647,0,0,1,1,2,2,3,3,5,5,6,6,7,7,8,8,9,9,17,17,18,18,20,20,21,21],"right_children":[2,4,6,8,-1,10,12,14,16,18,-1,-1,-1,-1,-1,-1,-1,20,22,-1,24,26,-1,-1,-1,-1,-1],"split_conditions":[-1.0937399E0,7.553813E-1,1.9725292E0,1.8586114E-2,-1.0580536E-2,2.495542E0,-1.0892581E0,-4.4840446E-1,-1.6682942E0,1.7850748E0,2.2842707E-2,-7.470397E-3,2.4752468E-2,3.918599E-3,2.9006282E-2,2.5151746E-2,-1.0014773E-2,-2.8108354E0,4.989186E-1,1.4102942E-2,-2.0859458E0,-3.8142532E-1,2.2082606E-2,7.7934423E-3,-1.17004635E-2,1.7128113E-3,-8.930832E-3],"split_indices":[55,59,0,59,0,55,11,30,54,54,0,0,0,0,0,0,0,35,41,0,7,0,0,0,0,0,0],"split_type":[0,0,0,0,0,0,0,0,0,0,0,0,0,0,0,0,0,0,0,0,0,0,0,0,0,0,0],"sum_hessian":[2.1872107E2,2.3918499E1,1.9480257E2,2.0416037E1,3.5024626E0,1.886045E2,6.198071E0,1.4264326E1,6.151711E0,1.8652194E2,2.0825605E0,1.1897186E0,5.0083528E0,2.0193157E0,1.224501E1,3.406045E0,2.745666E0,1.8179594E2,4.7259965E0,1.6324537E0,1.8016348E2,3.1163409E0,1.6096557E0,2.408687E0,1.777548E2,1.1830465E0,1.9332945E0],"tree_param":{"num_deleted":"0","num_feature":"60","num_nodes":"27","size_leaf_vector":"1"}},{"base_weights":[1.2740006E-1,9.448908E-1,-6.62261E-2,-2.589137E-1,1.114295E0,-1.85407E-1,9.690919E-1,-1.2648447E-2,9.866216E-3,-1.0520488E-3,1.1534419E0,1.06619686E-1,-6.775164E-1,-8.899554E-3,1.0825864E0,3.0793154E-1,2.4312513E-2,-4.0353596E-1,5.579817E-1,-7.0236325E-1,-3.7946466E-2,2.4008956E-2,4.9819803E-1,1.6426455E-2,-9.033382E-3,-5.8278894E-1,7.3319105E-3,-4.200101E-1,7.9488057E-1,-7.4172276E-1,-3.257356E-1,-8.969911E-3,7.745703E-3,-9.0260655E-3,1.9116439E-2,8.446491E-3,-1.39415E-2,-1.3614383E-2,1.1192753E-2,-1.3819394E-2,4.4745863E-3,2.0206878E-2,-1.3358551E-2,-1.5149195E-2,-2.8635853E-3,1.0663641E-2,-1.3089279E-2],"categories":[],"categories_nodes":[],"categories_segments":[],"categories_sizes":[],"default_left":[0,0,0,0,0,0,0,0,0,0,0,0,0,0,0,0,0,0,0,0,0,0,0,0,0,0,0,0,0,0,0,0,0,0,0,0,0,0,0,0,0,0,0,0,0,0,0],"id":15,"left_children":[1,3,5,7,9,11,13,-1,-1,-1,15,17,19,-1,21,23,-1,25,27,29,31,-1,33,-1,-1,35,37,39,41,43,45,-1,-1,-1,-1,-1,-1,-1,-1,-1,-1,-1,-1,-1,-1,-1,-1],"loss_changes":[4.189695E1,1.0623047E1,2.6661234E1,2.2964625E0,2.098648E0,2.78513E1,4.063177E0,0E0,0E0,0E0,1.8974838E0,2.8358006E1,1.119503E0,0E0,8.4484863E-1,2.0476136E0,0E0,4.270994E0,1.5449692E1,7.8673553E-1,8.2911956E-1,0E0,2.701879E0,0E0,0E0,4.9291735E0,7.443559E0,2.4878016E0,1.733741E1,4.7576523E-1,2.7056324E0,0E0,0E0,0E0,0E0,0E0,0E0,0E0,0E0,0E0,0E0,0E0,0E0,0E0,0E0,0E0,0E0],"parents":[2147483647,0,0,1,1,2,2,3,3,4,4,5,5,6,6,10,10,11,11,12,12,14,14,15,15,17,17,18,18,19,19,20,20,22,22,25,25,26,26,27,27,28,28,29,29,30,30],"right_children":[2,4,6,8,10,12,14,-1,-1,-1,16,18,20,-1,22,24,-1,26,28,30,32,-1,34,-1,-1,36,38,40,42,44,46,-1,-1,-1,-1,-1,-1,-1,-1,-1,-1,-1,-1,-1,-1,-1,-1],"split_conditions":[-8.4560835E-1,-1.4071463E0,7.5245607E-1,-2.569183E-1,-1.4902042E0,4.7817203E-1,-1.5591146E0,-1.2648447E-2,9.866216E-3,-1.0520488E-3,-1.1425582E0,8.705476E-2,7.40572E-1,-8.899554E-3,9.325763E-1,-9.7644496E-1,2.4312513E-2,-2.1055707E-1,-5.449016E-1,1.0106905E0,-1.3158712E-1,2.4008956E-2,3.0424345E-1,1.6426455E-2,-9.033382E-3,-8.255981E-1,-3.6450684E-1,3.638271E-1,1.0304866E0,1.8073478E0,5.1095647E-1,-8.969911E-3,7.745703E-3,-9.0260655E-3,1.9116439E-2,8.446491E-3,-1.39415E-2,-1.3614383E-2,1.1192753E-2,-1.3819394E-2,4.4745863E-3,2.0206878E-2,-1.3358551E-2,-1.5149195E-2,-2.8635853E-3,1.0663641E-2,-1.3089279E-2],"split_indices":[0,1,1,57,5,1,5,0,0,0,11,1,1,0,45,0,0,0,0,27,9,0,0,0,0,0,1,20,0,7,1,0,0,0,0,0,0,0,0,0,0,0,0,0,0,0,0],"split_type":[0,0,0,0,0,0,0,0,0,0,0,0,0,0,0,0,0,0,0,0,0,0,0,0,0,0,0,0,0,0,0,0,0,0,0,0,0,0,0,0,0,0,0,0,0,0,0],"sum_hessian":[2.6329346E2,4.9676983E1,2.1361649E2,6.0631576E0,4.3613827E1,1.9230066E2,2.1315823E1,4.157875E0,1.9052825E0,1.4045014E0,4.2209324E1,1.2117597E2,7.112469E1,1.3667159E0,1.9949106E1,3.2994013E0,3.8909924E1,5.6932972E1,6.4243E1,6.837036E1,2.7543223E0,1.5723703E1,4.2254033E0,1.9202834E0,1.3791178E0,3.934789E1,1.7585085E1,1.2376406E1,5.1866592E1,6.1023705E1,7.3466597E0,1.3735193E0,1.3808029E0,1.3786734E0,2.8467298E0,3.7420754E0,3.5605812E1,7.7267528E0,9.858332E0,8.65853E0,3.7178748E0,4.547735E1,6.3892436E0,5.9201656E1,1.8220484E0,1.8613306E0,5.485329E0],"tree_param":{"num_deleted":"0","num_feature":"60","num_nodes":"47","size_leaf_vector":"1"}},{"base_weights":[1.22826636E-1,-2.2442684E-1,6.661998E-1,-1.4880692E-2,7.2991974E-3,9.5129514E-1,-6.232636E-1,6.5980166E-1,-5.8717734E-1,1.0778975E0,-4.1988984E-1,-1.1986154E-1,-1.4343502E-2,-1.33099705E-2,8.777982E-1,-1.498842E-1,-6.548977E-1,-4.99465E-3,1.1221967E0,7.415586E-3,-1.2973811E-2,7.5181862E-3,-9.9475635E-3,1.0879372E0,2.563765E-1,4.8025072E-1,-4.9533567E-1,1.2479492E-3,-6.9005346E-1,1.143194E0,3.7886011E-3,4.050901E-3,2.3189882E-2,1.6232772E-2,-1.2756203E-2,1.5685994E-2,-5.864152E-4,-4.5090428E-4,-1.235418E-2,-4.596533E-3,-1.4546418E-2,1.5245908E-2,2.4429154E-2],"categories":[],"categories_nodes":[],"categories_segments":[],"categories_sizes":[],"default_left":[0,0,0,0,0,0,0,0,0,0,0,0,0,0,0,0,0,0,0,0,0,0,0,0,0,0,0,0,0,0,0,0,0,0,0,0,0,0,0,0,0,0,0],"id":16,"left_children":[1,3,5,-1,7,9,11,13,15,17,19,21,-1,-1,23,25,27,-1,29,-1,-1,-1,-1,31,33,35,37,-1,39,41,-1,-1,-1,-1,-1,-1,-1,-1,-1,-1,-1,-1,-1],"loss_changes":[4.96076E1,1.9350582E1,3.8255657E1,0E0,4.387195E1,1.5085991E1,8.195567E-1,1.6160572E1,1.6546421E0,4.835373E0,1.6597059E0,9.753221E-1,0E0,0E0,5.8232956E0,2.2479076E0,1.3279991E0,0E0,1.2549515E0,0E0,0E0,0E0,0E0,1.9580727E0,7.030439E0,6.082443E-1,3.5962224E-1,0E0,6.673889E-1,1.2534027E0,0E0,0E0,0E0,0E0,0E0,0E0,0E0,0E0,0E0,0E0,0E0,0E0,0E0],"parents":[2147483647,0,0,1,1,2,2,4,4,5,5,6,6,7,7,8,8,9,9,10,10,11,11,14,14,15,15,16,16,18,18,23,23,24,24,25,25,26,26,28,28,29,29],"right_children":[2,4,6,-1,8,10,12,14,16,18,20,22,-1,-1,24,26,28,-1,30,-1,-1,-1,-1,32,34,36,38,-1,40,42,-1,-1,-1,-1,-1,-1,-1,-1,-1,-1,-1,-1,-1],"split_conditions":[4.381543E-1,-8.4560835E-1,7.5245607E-1,-1.4880692E-2,-4.0260664E-1,1.7071211E0,-3.1285813E-1,-9.281645E-1,-1.0397599E0,-1.6958659E0,-1.4681001E0,-3.7820423E-1,-1.4343502E-2,-1.33099705E-2,1.8515857E-1,-5.801842E-1,-1.263281E0,-4.99465E-3,2.0406387E0,7.415586E-3,-1.2973811E-2,7.5181862E-3,-9.9475635E-3,-1.0354196E0,-6.329393E-1,6.465941E-1,-3.988619E-1,1.2479492E-3,-3.2332826E-1,4.926534E-1,3.7886011E-3,4.050901E-3,2.3189882E-2,1.6232772E-2,-1.2756203E-2,1.5685994E-2,-5.864152E-4,-4.5090428E-4,-1.235418E-2,-4.596533E-3,-1.4546418E-2,1.5245908E-2,2.4429154E-2],"split_indices":[1,0,1,0,0,0,51,1,31,34,25,19,0,0,1,19,14,0,58,0,0,0,0,48,0,36,1,0,0,1,0,0,0,0,0,0,0,0,0,0,0,0,0],"split_type":[0,0,0,0,0,0,0,0,0,0,0,0,0,0,0,0,0,0,0,0,0,0,0,0,0,0,0,0,0,0,0,0,0,0,0,0,0,0,0,0,0,0,0],"sum_hessian":[2.611154E2,1.5966516E2,1.0145023E2,4.8561993E1,1.11103165E2,8.329606E1,1.815418E1,5.2914207E1,5.818896E1,7.6451164E1,6.844889E0,3.212149E0,1.4942032E1,7.184369E0,4.572984E1,8.233797E0,4.9955166E1,2.3188448E0,7.4132324E1,1.3969387E0,5.4479504E0,1.390432E0,1.8217169E0,3.3612694E1,1.2117144E1,2.7773843E0,5.4564133E0,2.2977865E0,4.765738E1,7.2279655E1,1.8526669E0,2.7998588E0,3.0812836E1,7.5321984E0,4.5849447E0,1.4018174E0,1.3755667E0,1.3654027E0,4.0910106E0,4.106907E0,4.3550472E1,1.4150627E1,5.812903E1],"tree_param":{"num_deleted":"0","num_feature":"60","num_nodes":"43","size_leaf_vector":"1"}},{"base_weights":[-3.0566967E-1,8.346426E-1,-4.520347E-1,1.240488E0,2.832246E-1,-5.120352E-1,1.0426486E0,-1.0226532E-3,2.823775E-2,2.0970859E-2,-1.411159E-1,8.367246E-1,-5.508842E-1,2.7182834E-2,-7.5450866E-3,1.8478366E-2,-4.5304063E-1,-8.5032295E-4,2.3966419E-2,-5.768114E-1,2.2577628E-2,-1.1383927E-2,1.4441326E-3,1.04148425E-2,-5.8720416E-1,1.0368838E-2,-1.1954628E-2],"categories":[],"categories_nodes":[],"categories_segments":[],"categories_sizes":[],"default_left":[0,0,0,0,0,0,0,0,0,0,0,0,0,0,0,0,0,0,0,0,0,0,0,0,0,0,0],"id":17,"left_children":[1,3,5,7,9,11,13,-1,-1,-1,15,17,19,-1,-1,-1,21,-1,-1,23,-1,-1,-1,-1,25,-1,-1],"loss_changes":[3.6618576E1,5.2550793E0,1.7850452E1,3.2014523E0,4.0180955E0,1.0223087E1,4.0095835E0,0E0,0E0,0E0,3.2582178E0,1.8355145E0,8.564266E0,0E0,0E0,0E0,4.8540163E-1,0E0,0E0,2.3543587E0,0E0,0E0,0E0,0E0,2.386135E0,0E0,0E0],"parents":[2147483647,0,0,1,1,2,2,3,3,4,4,5,5,6,6,10,10,11,11,12,12,16,16,19,19,24,24],"right_children":[2,4,6,8,10,12,14,-1,-1,-1,16,18,20,-1,-1,-1,22,-1,-1,24,-1,-1,-1,-1,26,-1,-1],"split_conditions":[-9.1743994E-1,-4.3722063E-1,1.7603257E0,-7.5800323E-1,-2.0941727E0,-1.421952E0,5.7452184E-1,-1.0226532E-3,2.823775E-2,2.0970859E-2,-9.784021E-1,-1.3617061E0,2.495542E0,2.7182834E-2,-7.5450866E-3,1.8478366E-2,1.1611143E0,-8.5032295E-4,2.3966419E-2,-3.6281457E0,2.2577628E-2,-1.1383927E-2,1.4441326E-3,1.04148425E-2,-2.8108354E0,1.0368838E-2,-1.1954628E-2],"split_indices":[1,59,2,17,1,55,37,0,0,0,16,57,55,0,0,0,10,0,0,34,0,0,0,0,35,0,0],"split_type":[0,0,0,0,0,0,0,0,0,0,0,0,0,0,0,0,0,0,0,0,0,0,0,0,0,0,0],"sum_hessian":[2.1614133E2,2.4052076E1,1.9208925E2,1.3135023E1,1.0917053E1,1.8530794E2,6.7813163E0,1.621033E0,1.1513989E1,3.3693235E0,7.54773E0,4.6130753E0,1.8069485E2,5.5802774E0,1.2010387E0,1.2653465E0,6.2823834E0,1.6014603E0,3.0116148E0,1.7859485E2,2.1000032E0,5.076146E0,1.2062371E0,1.2146367E0,1.7738022E2,1.2179177E0,1.761623E2],"tree_param":{"num_deleted":"0","num_feature":"60","num_nodes":"27","size_leaf_vector":"1"}},{"base_weights":[1.4493626E-1,8.945273E-1,-5.1716726E-2,-2.209934E-1,1.0273473E0,-1.6495588E-1,9.3620414E-1,9.945596E-3,-1.2346387E-2,1.1270484E0,3.9021266E-1,1.4710295E-1,-6.588513E-1,1.0405862E0,1.0067079E-3,1.1671188E0,4.3121165E-1,-8.992785E-3,6.285062E-1,-5.864064E-1,4.9122024E-1,-6.9587594E-1,2.683597E-2,6.397657E-3,1.1228154E0,6.612567E-3,2.3809649E-2,-1.0277996E-3,1.456917E-2,1.948607E-2,-3.5181392E-3,7.15267E-3,-6.334975E-1,-6.4522475E-1,7.285207E-1,-1.0912796E-1,-7.2266924E-1,1.5621104E-2,-1.0697373E-2,2.343548E-2,6.9529186E-3,-1.3681099E-2,3.8850203E-3,-1.4183657E-2,-5.408551E-4,1.752171E-2,-1.315808E-2,7.732355E-3,-9.8165115E-3,-4.5882454E-3,-1.4734908E-2],"categories":[],"categories_nodes":[],"categories_segments":[],"categories_sizes":[],"default_left":[0,0,0,0,0,0,0,0,0,0,0,0,0,0,0,0,0,0,0,0,0,0,0,0,0,0,0,0,0,0,0,0,0,0,0,0,0,0,0,0,0,0,0,0,0,0,0,0,0,0,0],"id":18,"left_children":[1,3,5,7,9,11,13,-1,-1,15,17,19,21,23,-1,25,27,-1,29,31,33,35,37,-1,39,-1,-1,-1,-1,-1,-1,-1,41,43,45,47,49,-1,-1,-1,-1,-1,-1,-1,-1,-1,-1,-1,-1,-1,-1],"loss_changes":[3.847428E1,8.262283E0,2.3362906E1,2.1838517E0,2.6499214E0,2.891403E1,1.9342117E0,0E0,0E0,6.5463257E-1,1.9058539E0,2.9415556E1,1.8612099E0,7.76804E-1,0E0,3.6235428E-1,5.89322E-1,0E0,2.0449026E0,1.8849907E0,2.179922E1,1.0042458E0,2.4008572E0,0E0,2.304821E-1,0E0,0E0,0E0,0E0,0E0,0E0,0E0,1.6349812E0,5.419593E-1,1.40583725E1,9.8196095E-1,2.8720856E-1,0E0,0E0,0E0,0E0,0E0,0E0,0E0,0E0,0E0,0E0,0E0,0E0,0E0,0E0],"parents":[2147483647,0,0,1,1,2,2,3,3,4,4,5,5,6,6,9,9,10,10,11,11,12,12,13,13,15,15,16,16,18,18,19,19,20,20,21,21,22,22,24,24,32,32,33,33,34,34,35,35,36,36],"right_children":[2,4,6,8,10,12,14,-1,-1,16,18,20,22,24,-1,26,28,-1,30,32,34,36,38,-1,40,-1,-1,-1,-1,-1,-1,-1,42,44,46,48,50,-1,-1,-1,-1,-1,-1,-1,-1,-1,-1,-1,-1,-1,-1],"split_conditions":[-8.255981E-1,-1.7588345E0,7.5245607E-1,-5.848849E-1,8.0788565E-1,4.6894717E-1,1.2844688E0,9.945596E-3,-1.2346387E-2,1.092853E0,-9.0081114E-1,-5.196971E-1,1.2143849E0,-1.0462823E0,1.0067079E-3,-2.0365021E0,-2.0774552E-1,-8.992785E-3,3.8304684E-1,-2.2251883E0,-2.0794074E-1,-1.2422831E0,5.3330258E-2,6.397657E-3,9.585031E-1,6.612567E-3,2.3809649E-2,-1.0277996E-3,1.456917E-2,1.948607E-2,-3.5181392E-3,7.15267E-3,1.1113479E0,9.986648E-1,1.0304866E0,5.351874E-1,-1.6995764E0,1.5621104E-2,-1.0697373E-2,2.343548E-2,6.9529186E-3,-1.3681099E-2,3.8850203E-3,-1.4183657E-2,-5.408551E-4,1.752171E-2,-1.315808E-2,7.732355E-3,-9.8165115E-3,-4.5882454E-3,-1.4734908E-2],"split_indices":[0,1,1,34,39,1,3,0,0,52,57,0,21,43,0,59,9,0,35,57,1,38,42,0,55,0,0,0,0,0,0,0,3,35,0,1,35,0,0,0,0,0,0,0,0,0,0,0,0,0,0],"split_type":[0,0,0,0,0,0,0,0,0,0,0,0,0,0,0,0,0,0,0,0,0,0,0,0,0,0,0,0,0,0,0,0,0,0,0,0,0,0,0,0,0,0,0,0,0,0,0,0,0,0,0],"sum_hessian":[2.596892E2,5.323234E1,2.0645688E2,5.59314E0,4.7639202E1,1.8597299E2,2.0483887E1,1.8982184E0,3.6949215E0,4.0528263E1,7.1109395E0,1.1439607E2,7.157691E1,1.8168444E1,2.3154433E0,3.7681072E1,2.84719E0,1.3756447E0,5.735295E0,3.630513E1,7.809094E1,6.789592E1,3.6809921E0,2.3614519E0,1.5806992E1,1.4355443E0,3.624553E1,1.4004966E0,1.4466933E0,3.8633418E0,1.8719528E0,1.4116251E0,3.4893505E1,1.3192468E1,6.4898476E1,3.1865458E0,6.470937E1,1.4045491E0,2.276443E0,1.438671E1,1.4202809E0,3.3048553E1,1.8449533E0,1.1822125E1,1.3703425E0,5.8988144E1,5.9103312E0,1.3805757E0,1.8059702E0,2.275324E0,6.243405E1],"tree_param":{"num_deleted":"0","num_feature":"60","num_nodes":"51","size_leaf_vector":"1"}},{"base_weights":[1.09157205E-1,-1.4760795E-2,3.0655813E-1,2.2057658E-2,6.265448E-1,6.697039E-1,-5.694099E-1,9.1534007E-1,-5.757407E-1,-1.3244587E-2,8.843166E-1,-6.251174E-1,1.4286862E-1,1.043564E0,-4.1709223E-1,-1.0390356E-1,-1.4195401E-2,3.5555756E-1,1.0660675E0,-3.9787266E-1,-6.956887E-1,-9.9489E-3,1.2838915E-2,-6.696119E-2,1.0882634E0,-1.2905237E-2,7.354303E-3,-1.162149E-2,1.519896E-2,1.8384716E-2,-2.06764E-3,9.12362E-3,2.314337E-2,1.0625122E-2,-1.126651E-2,-5.071978E-4,-1.43620595E-2,-9.242068E-3,7.0626563E-3,8.630295E-3,2.2864437E-2],"categories":[],"categories_nodes":[],"categories_segments":[],"categories_sizes":[],"default_left":[0,0,0,0,0,0,0,0,0,0,0,0,0,0,0,0,0,0,0,0,0,0,0,0,0,0,0,0,0,0,0,0,0,0,0,0,0,0,0,0,0],"id":19,"left_children":[1,-1,3,5,7,9,11,13,15,-1,17,19,21,23,25,27,-1,29,31,33,35,-1,-1,37,39,-1,-1,-1,-1,-1,-1,-1,-1,-1,-1,-1,-1,-1,-1,-1,-1],"loss_changes":[4.389142E1,0E0,1.9328047E1,4.38605E1,3.5234108E1,1.620407E1,2.4647331E0,1.42714615E1,1.1894135E0,0E0,4.184349E0,6.166115E-1,1.9671586E0,3.754219E0,1.6382563E0,2.7458725E0,0E0,3.6254787E0,1.4077415E0,2.687723E0,6.00399E-1,0E0,0E0,7.958929E-1,2.0819626E0,0E0,0E0,0E0,0E0,0E0,0E0,0E0,0E0,0E0,0E0,0E0,0E0,0E0,0E0,0E0,0E0],"parents":[2147483647,0,0,2,2,3,3,4,4,5,5,6,6,7,7,8,8,10,10,11,11,12,12,13,13,14,14,15,15,17,17,18,18,19,19,20,20,23,23,24,24],"right_children":[2,-1,4,6,8,10,12,14,16,-1,18,20,22,24,26,28,-1,30,32,34,36,-1,-1,38,40,-1,-1,-1,-1,-1,-1,-1,-1,-1,-1,-1,-1,-1,-1,-1,-1],"split_conditions":[-8.4560835E-1,-1.4760795E-2,4.4084367E-1,-4.0260664E-1,7.5245607E-1,-9.281645E-1,1.2477264E0,1.7071211E0,3.0424345E-1,-1.3244587E-2,-3.4057522E-1,-5.706674E-1,-2.992304E-1,-1.2627094E0,1.0113573E0,3.6423972E-1,-1.4195401E-2,-1.0378871E0,-7.9338753E-1,-2.917201E-1,-1.8420198E0,-9.9489E-3,1.2838915E-2,-9.61722E-3,4.6894717E-1,-1.2905237E-2,7.354303E-3,-1.162149E-2,1.519896E-2,1.8384716E-2,-2.06764E-3,9.12362E-3,2.314337E-2,1.0625122E-2,-1.126651E-2,-5.071978E-4,-1.43620595E-2,-9.242068E-3,7.0626563E-3,8.630295E-3,2.2864437E-2],"split_indices":[0,0,1,0,1,1,47,0,0,0,38,16,32,23,42,24,0,38,0,0,57,0,0,9,1,0,0,0,0,0,0,0,0,0,0,0,0,0,0,0,0],"split_type":[0,0,0,0,0,0,0,0,0,0,0,0,0,0,0,0,0,0,0,0,0,0,0,0,0,0,0,0,0,0,0,0,0,0,0,0,0,0,0,0,0],"sum_hessian":[2.600968E2,4.8633747E1,2.1146306E2,1.125043E2,9.8958755E1,5.3638664E1,5.886564E1,7.998469E1,1.8974073E1,7.1539555E0,4.648471E1,5.470919E1,4.156451E0,7.316099E1,6.8236995E0,4.590147E0,1.4383926E1,1.2647178E1,3.3837532E1,1.453697E1,4.017222E1,1.8220457E0,2.3344057E0,2.8115718E0,7.034941E1,5.4244423E0,1.3992572E0,3.167719E0,1.4224279E0,5.2257977E0,7.4213796E0,5.1782913E0,2.8659243E1,1.8631599E0,1.267381E1,1.3687682E0,3.880345E1,1.3972821E0,1.4142896E0,6.1159563E0,6.423346E1],"tree_param":{"num_deleted":"0","num_feature":"60","num_nodes":"41","size_leaf_vector":"1"}},{"base_weights":[-3.2046434E-1,1.0846756E0,-4.184912E-1,2.7492458E-2,4.921163E-1,-4.563585E-1,2.2612564E-2,2.3309916E-2,-9.523604E-3,-4.808722E-1,4.6710828E-1,1.604425E-1,-5.085902E-1,-2.2627729E-1,2.305542E-2,9.034031E-1,-1.0934821E-2,1.0315223E-2,-5.223861E-1,1.7242848E-3,-8.127547E-3,1.40516E-3,2.3331024E-2,-1.0807571E-2,5.00861E-3],"categories":[],"categories_nodes":[],"categories_segments":[],"categories_sizes":[],"default_left":[0,0,0,0,0,0,0,0,0,0,0,0,0,0,0,0,0,0,0,0,0,0,0,0,0],"id":20,"left_children":[1,3,5,-1,7,9,-1,-1,-1,11,13,15,17,19,-1,21,-1,-1,23,-1,-1,-1,-1,-1,-1],"loss_changes":[3.0977291E1,1.8542442E0,1.2709774E1,0E0,4.7260685E0,4.834133E0,0E0,0E0,0E0,3.6163292E0,3.0053482E0,5.2218213E0,2.966484E0,2.436138E-1,0E0,9.6278095E-1,0E0,0E0,2.7607307E0,0E0,0E0,0E0,0E0,0E0,0E0],"parents":[2147483647,0,0,1,1,2,2,4,4,5,5,9,9,10,10,11,11,12,12,13,13,15,15,18,18],"right_children":[2,4,6,-1,8,10,-1,-1,-1,12,14,16,18,20,-1,22,-1,-1,24,-1,-1,-1,-1,-1,-1],"split_conditions":[-1.3897737E0,-5.782952E-1,2.4557118E0,2.7492458E-2,-1.6682942E0,1.7850748E0,2.2612564E-2,2.3309916E-2,-9.523604E-3,-1.0937399E0,4.989186E-1,1.8586114E-2,-2.8249536E0,5.2186096E-1,2.305542E-2,-8.9781165E-2,-1.0934821E-2,1.0315223E-2,2.1750555E0,1.7242848E-3,-8.127547E-3,1.40516E-3,2.3331024E-2,-1.0807571E-2,5.00861E-3],"split_indices":[55,59,55,0,54,54,0,0,0,55,41,59,13,6,0,20,0,0,31,0,0,0,0,0,0],"split_type":[0,0,0,0,0,0,0,0,0,0,0,0,0,0,0,0,0,0,0,0,0,0,0,0,0],"sum_hessian":[2.2059894E2,1.3729663E1,2.0686926E2,8.332602E0,5.397062E0,2.0262172E2,4.247556E0,3.0631845E0,2.333877E0,1.9784901E2,4.772691E0,7.998492E0,1.8985052E2,2.7060993E0,2.0665915E0,3.7652688E0,4.233223E0,2.039389E0,1.8781114E2,1.1799927E0,1.5261066E0,1.2079155E0,2.557353E0,1.8383199E2,3.979161E0],"tree_param":{"num_deleted":"0","num_feature":"60","num_nodes":"25","size_leaf_vector":"1"}},{"base_weights":[1.4313836E-1,3.8886565E-1,-3.0344233E-1,1.9196276E-1,6.75561E-1,-6.453783E-1,9.8673284E-1,-1.3275336E-2,2.5514677E-1,7.144323E-1,-9.914509E-3,-2.3230593E-1,-7.0217156E-1,8.3146465E-4,1.1075773E0,4.2965528E-1,-2.9729685E-2,7.9898405E-1,7.081078E-2,-5.4213524E-1,4.6619788E-1,-3.1644687E-2,-7.3080057E-1,6.752513E-3,2.3077419E-2,5.5099916E-1,-2.168339E-1,-1.4493087E-1,1.5605786E-2,8.7007195E-1,1.5077674E-1,1.737841E-2,-3.5767657E-1,-1.2967001E-2,-4.6027073E-4,-9.0599724E-4,1.5616289E-2,-8.73983E-3,7.6209744E-3,-1.4921535E-2,-5.0756056E-4,1.6604798E-2,6.494271E-3,1.6237063E-2,-1.1103885E-2,-9.428767E-3,2.8053771E-3,5.8271256E-3,1.9026551E-2,-1.0849614E-2,1.1893094E-2,-1.2403591E-2,6.8594436E-3],"categories":[],"categories_nodes":[],"categories_segments":[],"categories_sizes":[],"default_left":[0,0,0,0,0,0,0,0,0,0,0,0,0,0,0,0,0,0,0,0,0,0,0,0,0,0,0,0,0,0,0,0,0,0,0,0,0,0,0,0,0,0,0,0,0,0,0,0,0,0,0,0,0],"id":21,"left_children":[1,3,5,7,9,11,13,-1,15,17,-1,19,21,-1,23,25,27,29,31,33,35,37,39,-1,-1,41,43,45,-1,47,49,-1,51,-1,-1,-1,-1,-1,-1,-1,-1,-1,-1,-1,-1,-1,-1,-1,-1,-1,-1,-1,-1],"loss_changes":[2.9171757E1,9.536068E0,4.234148E1,5.7332478E0,3.5102043E0,1.6041908E0,2.2612534E0,0E0,4.8126626E0,3.6168213E0,0E0,2.5467834E0,1.2387352E0,0E0,2.4744606E-1,4.8215103E0,3.622915E0,2.6136208E0,3.366451E0,4.154544E-1,6.4604086E-1,7.916422E-1,6.5992737E-1,0E0,0E0,2.9371252E0,3.9975228E0,3.2110403E0,0E0,2.2371864E0,2.5063586E0,0E0,1.4122949E0,0E0,0E0,0E0,0E0,0E0,0E0,0E0,0E0,0E0,0E0,0E0,0E0,0E0,0E0,0E0,0E0,0E0,0E0,0E0,0E0],"parents":[2147483647,0,0,1,1,2,2,3,3,4,4,5,5,6,6,8,8,9,9,11,11,12,12,14,14,15,15,16,16,17,17,18,18,19,19,20,20,21,21,22,22,25,25,26,26,27,27,29,29,30,30,32,32],"right_children":[2,4,6,8,10,12,14,-1,16,18,-1,20,22,-1,24,26,28,30,32,34,36,38,40,-1,-1,42,44,46,-1,48,50,-1,52,-1,-1,-1,-1,-1,-1,-1,-1,-1,-1,-1,-1,-1,-1,-1,-1,-1,-1,-1,-1],"split_conditions":[4.6028873E-1,8.705476E-2,7.5245607E-1,-2.0980103E0,1.2434297E0,4.926534E-1,-1.3006123E0,-1.3275336E-2,-4.9271807E-1,1.0678028E0,-9.914509E-3,3.6609924E-1,-1.6832571E0,8.3146465E-4,-1.0319095E0,8.744533E-1,1.1031483E0,1.0877572E0,-3.2611495E-1,5.893968E-1,5.0485473E-2,3.790745E-1,7.496788E-1,6.752513E-3,2.3077419E-2,-9.7710304E-2,-6.1889577E-1,-2.0794074E-1,1.5605786E-2,-1.0397599E0,-2.660972E-1,1.737841E-2,5.1339614E-1,-1.2967001E-2,-4.6027073E-4,-9.0599724E-4,1.5616289E-2,-8.73983E-3,7.6209744E-3,-1.4921535E-2,-5.0756056E-4,1.6604798E-2,6.494271E-3,1.6237063E-2,-1.1103885E-2,-9.428767E-3,2.8053771E-3,5.8271256E-3,1.9026551E-2,-1.0849614E-2,1.1893094E-2,-1.2403591E-2,6.8594436E-3],"split_indices":[1,1,1,2,2,1,16,0,2,43,0,21,31,0,43,10,43,59,28,3,17,2,1,0,0,34,23,1,0,31,20,0,37,0,0,0,0,0,0,0,0,0,0,0,0,0,0,0,0,0,0,0,0],"split_type":[0,0,0,0,0,0,0,0,0,0,0,0,0,0,0,0,0,0,0,0,0,0,0,0,0,0,0,0,0,0,0,0,0,0,0,0,0,0,0,0,0,0,0,0,0,0,0,0,0,0,0,0,0],"sum_hessian":[2.6375797E2,1.7022327E2,9.353468E1,1.0190459E2,6.831868E1,7.433374E1,1.9200945E1,6.353327E0,9.555126E1,6.650174E1,1.8169383E0,9.6001E0,6.473364E1,2.3290212E0,1.6871923E1,5.893864E1,3.6612617E1,5.856654E1,7.9351997E0,6.8053646E0,2.7947347E0,2.736922E0,6.199672E1,1.4272438E0,1.5444679E1,4.9748684E1,9.189956E0,3.2772743E1,3.8398743E0,5.2469967E1,6.096575E0,2.4129355E0,5.522264E0,5.442804E0,1.3625606E0,1.3903482E0,1.4043865E0,1.351048E0,1.3858742E0,6.062621E1,1.3705125E0,2.107399E1,2.8674694E1,1.9282609E0,7.2616954E0,1.4975367E1,1.7797377E1,7.0246863E0,4.5445282E1,2.2930708E0,3.8035038E0,4.100742E0,1.4215224E0],"tree_param":{"num_deleted":"0","num_feature":"60","num_nodes":"53","size_leaf_vector":"1"}},{"base_weights":[1.0501235E-1,-2.3007864E-1,6.147647E-1,-1.4616568E-2,-2.2962453E-2,8.9919496E-1,-5.7742524E-1,6.540669E-1,-5.753689E-1,1.0194714E0,-4.1586956E-1,-1.4167171E-2,-3.8413495E-2,-1.296388E-2,8.4760463E-1,-6.560138E-1,2.0680244E-3,3.4055325E-1,1.0970389E0,-1.2867532E-2,7.2943037E-3,1.5074262E-2,-1.1002576E-2,1.0126475E0,3.2013822E-1,-6.8903506E-1,3.969023E-3,-1.1699297E-2,5.174116E-1,-1.7915617E-1,2.0020809E-2,-9.1299444E-4,1.1211672E0,5.892456E-3,2.210274E-2,1.564901E-2,-1.2113003E-2,-6.2687686E-3,-1.4824129E-2,1.929771E-2,-8.694164E-3,1.0028732E-2,-1.2020601E-2,2.2675168E-2,6.396499E-3],"categories":[],"categories_nodes":[],"categories_segments":[],"categories_sizes":[],"default_left":[0,0,0,0,0,0,0,0,0,0,0,0,0,0,0,0,0,0,0,0,0,0,0,0,0,0,0,0,0,0,0,0,0,0,0,0,0,0,0,0,0,0,0,0,0],"id":22,"left_children":[1,3,5,-1,7,9,11,13,15,17,19,-1,21,-1,23,25,27,29,31,-1,-1,-1,-1,33,35,37,-1,-1,39,41,-1,-1,43,-1,-1,-1,-1,-1,-1,-1,-1,-1,-1,-1,-1],"loss_changes":[4.502539E1,1.6501907E1,3.5952396E1,0E0,4.2900734E1,1.3830032E1,1.4362764E0,1.3543589E1,2.9419136E0,3.7310944E0,1.6220715E0,0E0,2.485986E0,0E0,3.6210632E0,1.7001972E0,2.945256E0,3.4205222E0,1.9674301E0,0E0,0E0,0E0,0E0,1.9360657E0,5.722513E0,8.174629E-1,0E0,0E0,2.627332E0,2.0621703E0,0E0,0E0,3.2455444E-1,0E0,0E0,0E0,0E0,0E0,0E0,0E0,0E0,0E0,0E0,0E0,0E0],"parents":[2147483647,0,0,1,1,2,2,4,4,5,5,6,6,7,7,8,8,9,9,10,10,12,12,14,14,15,15,16,16,17,17,18,18,23,23,24,24,25,25,28,28,29,29,32,32],"right_children":[2,4,6,-1,8,10,12,14,16,18,20,-1,22,-1,24,26,28,30,32,-1,-1,-1,-1,34,36,38,-1,-1,40,42,-1,-1,44,-1,-1,-1,-1,-1,-1,-1,-1,-1,-1,-1,-1],"split_conditions":[4.381543E-1,-8.4560835E-1,7.5245607E-1,-1.4616568E-2,-4.0260664E-1,1.7071211E0,9.325763E-1,-9.281645E-1,1.0720357E0,4.7817203E-1,1.2617629E0,-1.4167171E-2,3.0424345E-1,-1.296388E-2,1.8515857E-1,2.3229675E0,1.1391433E-1,-4.0967938E-2,-2.3162723E0,-1.2867532E-2,7.2943037E-3,1.5074262E-2,-1.1002576E-2,-9.780527E-1,-5.82198E-1,-2.917201E-1,3.969023E-3,-1.1699297E-2,1.6830285E-1,-5.449016E-1,2.0020809E-2,-9.1299444E-4,1.9352587E0,5.892456E-3,2.210274E-2,1.564901E-2,-1.2113003E-2,-6.2687686E-3,-1.4824129E-2,1.929771E-2,-8.694164E-3,1.0028732E-2,-1.2020601E-2,2.2675168E-2,6.396499E-3],"split_indices":[1,0,1,0,0,0,45,1,0,1,19,0,0,0,1,36,1,0,34,0,0,0,0,22,0,0,0,0,46,0,0,0,7,0,0,0,0,0,0,0,0,0,0,0,0],"split_type":[0,0,0,0,0,0,0,0,0,0,0,0,0,0,0,0,0,0,0,0,0,0,0,0,0,0,0,0,0,0,0,0,0,0,0,0,0,0,0,0,0,0,0,0,0],"sum_hessian":[2.6176593E2,1.5827249E2,1.03493416E2,4.556948E1,1.1270302E2,8.375668E1,1.9736736E1,5.0556698E1,6.214632E1,7.6944115E1,6.8125687E0,1.5626633E1,4.110104E0,6.237451E0,4.4319244E1,5.441117E1,7.7351484E0,8.442307E0,6.85018E1,5.411209E0,1.4013596E0,1.4274778E0,2.6826262E0,3.3056206E1,1.1263039E1,5.2573063E1,1.8381093E0,3.552904E0,4.1822443E0,5.132507E0,3.309801E0,1.3980856E0,6.7103714E1,4.2497263E0,2.880648E1,7.6151023E0,3.6479368E0,7.266602E0,4.530646E1,2.835989E0,1.3462555E0,1.891856E0,3.240651E0,6.565724E1,1.4464782E0],"tree_param":{"num_deleted":"0","num_feature":"60","num_nodes":"45","size_leaf_vector":"1"}},{"base_weights":[-2.967429E-1,8.4707415E-1,-4.4628304E-1,-5.8653403E-2,2.7575826E-2,-5.0022584E-1,1.0072067E0,6.777122E-1,-1.1486964E-2,9.012907E-1,-5.4310244E-1,-8.156042E-4,2.6091907E-2,-1.0744799E-3,2.1375809E-2,2.5130067E-2,-9.073872E-4,-5.7742137E-1,5.8376944E-1,1.3866767E-2,-5.93059E-1,-8.345659E-3,2.072929E-2,1.0421237E-2,-1.2072687E-2],"categories":[],"categories_nodes":[],"categories_segments":[],"categories_sizes":[],"default_left":[0,0,0,0,0,0,0,0,0,0,0,0,0,0,0,0,0,0,0,0,0,0,0,0,0],"id":23,"left_children":[1,3,5,7,-1,9,11,13,-1,15,17,-1,-1,-1,-1,-1,-1,19,21,-1,23,-1,-1,-1,-1],"loss_changes":[3.8212807E1,1.2563744E1,1.5892883E1,4.3944163E0,0E0,1.1902222E1,2.3456044E0,1.4312685E0,0E0,2.079227E0,7.487961E0,0E0,0E0,0E0,0E0,0E0,0E0,3.986988E0,3.134379E0,0E0,2.4152641E0,0E0,0E0,0E0,0E0],"parents":[2147483647,0,0,1,1,2,2,3,3,5,5,6,6,7,7,9,9,10,10,17,17,18,18,20,20],"right_children":[2,4,6,8,-1,10,12,14,-1,16,18,-1,-1,-1,-1,-1,-1,20,22,-1,24,-1,-1,-1,-1],"split_conditions":[-1.0937399E0,3.1501487E-1,2.053032E0,-1.7510438E-2,2.7575826E-2,-1.6332183E0,-4.8153326E-1,-9.2548114E-1,-1.1486964E-2,4.366118E-1,1.9725292E0,-8.156042E-4,2.6091907E-2,-1.0744799E-3,2.1375809E-2,2.5130067E-2,-9.073872E-4,-2.8108354E0,-1.2254045E-1,1.3866767E-2,-2.09796E0,-8.345659E-3,2.072929E-2,1.0421237E-2,-1.2072687E-2],"split_indices":[55,58,55,59,0,1,52,6,0,33,0,0,0,0,0,0,0,35,35,0,3,0,0,0,0],"split_type":[0,0,0,0,0,0,0,0,0,0,0,0,0,0,0,0,0,0,0,0,0,0,0,0,0],"sum_hessian":[2.201957E2,2.4920082E1,1.9527562E2,9.547149E0,1.5372933E1,1.8892014E2,6.3554754E0,3.8028498E0,5.744299E0,5.0137587E0,1.8390639E2,1.5955803E0,4.759895E0,1.6254275E0,2.1774223E0,3.4077692E0,1.6059895E0,1.7894423E2,4.9621577E0,1.6484542E0,1.7729578E2,1.5695686E0,3.392589E0,1.2132039E0,1.7608257E2],"tree_param":{"num_deleted":"0","num_feature":"60","num_nodes":"25","size_leaf_vector":"1"}},{"base_weights":[1.24323584E-1,8.5422957E-1,-7.388946E-2,-3.6250508E-1,9.96275E-1,-1.6783378E-1,8.9370006E-1,6.8283556E-3,-1.2492667E-2,1.0909494E0,3.753916E-1,1.2869464E-1,-6.469853E-1,8.734198E-2,1.0632806E0,1.1311071E0,5.8158874E-3,-9.022799E-3,6.1037767E-1,-5.401674E-1,4.569073E-1,1.4009728E-3,-6.714613E-1,-1.0033993E-2,1.4692656E-2,2.2267375E-2,6.835457E-3,2.3044271E-2,6.549435E-3,1.8946167E-2,-3.545343E-3,-5.6820832E-2,-6.692639E-1,-6.46378E-1,7.043801E-1,-1.6746955E-1,-6.9650775E-1,1.6856477E-2,-8.032516E-3,-2.1465144E-3,-1.4605588E-2,-1.41381435E-2,-4.856993E-4,1.7252661E-2,-1.3189863E-2,7.7694803E-3,-1.046828E-2,-1.4206653E-2,-4.927182E-4],"categories":[],"categories_nodes":[],"categories_segments":[],"categories_sizes":[],"default_left":[0,0,0,0,0,0,0,0,0,0,0,0,0,0,0,0,0,0,0,0,0,0,0,0,0,0,0,0,0,0,0,0,0,0,0,0,0,0,0,0,0,0,0,0,0,0,0,0,0],"id":24,"left_children":[1,3,5,7,9,11,13,-1,-1,15,17,19,21,23,25,27,-1,-1,29,31,33,-1,35,-1,-1,-1,-1,-1,-1,-1,-1,37,39,41,43,45,47,-1,-1,-1,-1,-1,-1,-1,-1,-1,-1,-1,-1],"loss_changes":[3.76635E1,9.967697E0,1.8812471E1,1.4207159E0,2.531868E0,2.679201E1,2.4133053E0,0E0,0E0,1.0493736E0,1.8573657E0,2.5921482E1,1.3111267E0,1.9982125E0,1.6349983E-1,3.0961227E-1,0E0,0E0,1.9638064E0,2.3927908E0,2.2024086E1,0E0,7.637596E-1,0E0,0E0,0E0,0E0,0E0,0E0,0E0,0E0,3.224739E0,9.7258854E-1,5.4744864E-1,1.4598843E1,1.1172659E0,5.9671783E-1,0E0,0E0,0E0,0E0,0E0,0E0,0E0,0E0,0E0,0E0,0E0,0E0],"parents":[2147483647,0,0,1,1,2,2,3,3,4,4,5,5,6,6,9,9,10,10,11,11,12,12,13,13,14,14,15,15,18,18,19,19,20,20,22,22,31,31,32,32,33,33,34,34,35,35,36,36],"right_children":[2,4,6,8,10,12,14,-1,-1,16,18,20,22,24,26,28,-1,-1,30,32,34,-1,36,-1,-1,-1,-1,-1,-1,-1,-1,38,40,42,44,46,48,-1,-1,-1,-1,-1,-1,-1,-1,-1,-1,-1,-1],"split_conditions":[-8.271358E-1,-1.7588345E0,7.5245607E-1,-3.1456235E-1,8.0463064E-1,4.6894717E-1,-3.1285813E-1,6.8283556E-3,-1.2492667E-2,1.2610012E0,-9.0081114E-1,-4.8909354E-1,-1.6832571E0,1.7211042E-1,9.5135427E-1,1.3357462E0,5.8158874E-3,-9.022799E-3,3.8304684E-1,-7.823533E-1,-2.1139495E-1,1.4009728E-3,-1.2422831E0,-1.0033993E-2,1.4692656E-2,2.2267375E-2,6.835457E-3,2.3044271E-2,6.549435E-3,1.8946167E-2,-3.545343E-3,-3.5524935E-1,-1.0119853E0,9.986648E-1,1.0304866E0,5.619551E-1,7.496788E-1,1.6856477E-2,-8.032516E-3,-2.1465144E-3,-1.4605588E-2,-1.41381435E-2,-4.856993E-4,1.7252661E-2,-1.3189863E-2,7.7694803E-3,-1.046828E-2,-1.4206653E-2,-4.927182E-4],"split_indices":[0,1,1,17,39,1,51,0,0,53,57,0,31,43,34,37,0,0,35,0,1,0,38,0,0,0,0,0,0,0,0,8,19,35,0,1,1,0,0,0,0,0,0,0,0,0,0,0,0],"split_type":[0,0,0,0,0,0,0,0,0,0,0,0,0,0,0,0,0,0,0,0,0,0,0,0,0,0,0,0,0,0,0,0,0,0,0,0,0,0,0,0,0,0,0,0,0,0,0,0,0],"sum_hessian":[2.5889212E2,5.4583275E1,2.0430884E2,5.54383E0,4.9039448E1,1.8698117E2,1.7327662E1,1.422187E0,4.121643E0,4.1894188E1,7.1452603E0,1.1595345E2,7.102772E1,3.274135E0,1.4053526E1,3.949826E1,2.3959253E0,1.378105E0,5.7671556E0,3.795647E1,7.799699E1,2.2830422E0,6.8744675E1,1.8319577E0,1.4421775E0,1.2633382E1,1.4201444E0,3.8064785E1,1.4334776E0,3.8972986E0,1.8698568E0,8.304388E0,2.9652084E1,1.3994532E1,6.400246E1,3.6185062E0,6.512617E1,1.9007399E0,6.403648E0,3.174519E0,2.6477564E1,1.2629367E1,1.3651651E0,5.7677525E1,6.324929E0,1.3767674E0,2.2417388E0,6.3757008E1,1.3691579E0],"tree_param":{"num_deleted":"0","num_feature":"60","num_nodes":"49","size_leaf_vector":"1"}},{"base_weights":[9.840339E-2,-2.3979816E-1,6.1908627E-1,-1.4330688E-2,-1.278854E-1,8.7146133E-1,-5.547356E-1,1.23481015E-2,-5.501863E-1,1.0050257E0,-1.5391259E-1,-1.3967037E-2,3.2717805E-2,1.68964E-1,-3.6650497E-1,1.1387529E-1,-6.271359E-1,6.298168E-1,1.142797E0,-5.4424036E-1,1.3454263E-2,1.4965271E-2,-1.0350863E-2,-2.6053175E-1,3.2297778E-1,-5.8169454E-1,1.5476133E-1,-9.557949E-3,1.4803742E-2,1.4087227E-3,-6.888452E-1,-1.0127376E-2,7.5576895E-1,6.0994644E-3,1.1602625E0,-1.2978317E-2,-5.843658E-4,-9.86377E-3,6.3272575E-3,4.3746755E-3,1.8832276E-2,-7.861976E-4,-1.4258076E-2,1.2219985E-2,-1.136834E-2,-1.446944E-2,-4.6728438E-4,-9.575769E-3,1.7441092E-2,6.802546E-3,2.3529992E-2],"categories":[],"categories_nodes":[],"categories_segments":[],"categories_sizes":[],"default_left":[0,0,0,0,0,0,0,0,0,0,0,0,0,0,0,0,0,0,0,0,0,0,0,0,0,0,0,0,0,0,0,0,0,0,0,0,0,0,0,0,0,0,0,0,0,0,0,0,0,0,0],"id":25,"left_children":[1,3,5,-1,7,9,11,13,15,17,19,-1,21,23,25,27,29,31,33,35,-1,-1,-1,37,39,41,43,-1,-1,-1,45,-1,47,-1,49,-1,-1,-1,-1,-1,-1,-1,-1,-1,-1,-1,-1,-1,-1,-1,-1],"loss_changes":[4.605629E1,8.378895E0,3.097691E1,0E0,7.6935005E0,1.1810524E1,1.6111469E0,5.9015326E0,1.7259607E0,3.179573E0,3.8106706E0,0E0,2.2195246E0,4.735506E0,3.3543537E0,1.9136192E0,1.3042059E0,3.6006517E0,4.3553925E-1,4.0177178E-1,0E0,0E0,0E0,2.7213848E0,3.1606183E0,1.4528093E0,3.4135008E0,0E0,0E0,0E0,6.027889E-1,0E0,3.3811874E0,0E0,2.9880524E-1,0E0,0E0,0E0,0E0,0E0,0E0,0E0,0E0,0E0,0E0,0E0,0E0,0E0,0E0,0E0,0E0],"parents":[2147483647,0,0,1,1,2,2,4,4,5,5,6,6,7,7,8,8,9,9,10,10,12,12,13,13,14,14,15,15,16,16,17,17,18,18,19,19,23,23,24,24,25,25,26,26,30,30,32,32,34,34],"right_children":[2,4,6,-1,8,10,12,14,16,18,20,-1,22,24,26,28,30,32,34,36,-1,-1,-1,38,40,42,44,-1,-1,-1,46,-1,48,-1,50,-1,-1,-1,-1,-1,-1,-1,-1,-1,-1,-1,-1,-1,-1,-1,-1],"split_conditions":[4.381543E-1,-7.649028E-1,7.5245607E-1,-1.4330688E-2,2.3830558E-1,1.1632215E0,9.325763E-1,1.8515857E-1,-1.2398101E0,5.157395E-1,5.1588154E-1,-1.3967037E-2,6.369129E-1,-3.9882728E-1,9.4280493E-1,-1.7270519E0,-1.9020902E0,-1.2422831E0,-1.5331854E0,5.066381E-1,1.3454263E-2,1.4965271E-2,-1.0350863E-2,6.1048937E-1,9.7643715E-1,-9.833699E-1,3.3191076E-1,-9.557949E-3,1.4803742E-2,1.4087227E-3,9.264875E-1,-1.0127376E-2,-1.3681394E0,6.0994644E-3,-1.4696914E0,-1.2978317E-2,-5.843658E-4,-9.86377E-3,6.3272575E-3,4.3746755E-3,1.8832276E-2,-7.861976E-4,-1.4258076E-2,1.2219985E-2,-1.136834E-2,-1.446944E-2,-4.6728438E-4,-9.575769E-3,1.7441092E-2,6.802546E-3,2.3529992E-2],"split_indices":[1,1,1,0,2,2,45,1,20,1,18,0,2,38,59,20,56,38,45,26,0,0,0,4,45,46,1,0,0,0,9,0,39,0,4,0,0,0,0,0,0,0,0,0,0,0,0,0,0,0,0],"split_type":[0,0,0,0,0,0,0,0,0,0,0,0,0,0,0,0,0,0,0,0,0,0,0,0,0,0,0,0,0,0,0,0,0,0,0,0,0,0,0,0,0,0,0,0,0,0,0,0,0,0,0],"sum_hessian":[2.5969815E2,1.5776425E2,1.0193389E2,2.8966686E1,1.2879758E2,8.410802E1,1.7825876E1,9.741855E1,3.1379025E1,7.443236E1,9.675655E0,1.4172348E1,3.6535277E0,6.931719E1,2.8101357E1,3.208692E0,2.8170332E1,2.1486656E1,5.29457E1,6.804312E0,2.8713434E0,1.4318073E0,2.2217205E0,1.8113304E1,5.1203888E1,1.9808195E1,8.29316E0,1.7716801E0,1.437012E0,2.2780042E0,2.5892328E1,1.8428053E0,1.964385E1,1.4581754E0,5.1487526E1,5.4389057E0,1.3654064E0,1.3011125E1,5.10218E0,4.4978333E1,6.225554E0,4.1115856E0,1.56966095E1,5.1802006E0,3.1129599E0,2.4528883E1,1.3634458E0,1.422664E0,1.8221188E1,1.4256521E0,5.0061874E1],"tree_param":{"num_deleted":"0","num_feature":"60","num_nodes":"51","size_leaf_vector":"1"}},{"base_weights":[-2.956654E-1,7.619636E-1,-4.278935E-1,-3.8239904E-2,2.7614513E-2,-4.8083594E-1,9.0288347E-1,6.703886E-1,-4.650164E-1,5.1460385E-1,-5.3129536E-1,-8.4292225E-4,2.3056379E-2,-1.0212078E-3,2.1025248E-2,-1.1465756E-2,1.6308419E-3,2.158093E-2,-4.9107824E-2,-5.714364E-1,6.372295E-1,-1.0197782E-2,1.3409931E-2,1.0524185E-2,-5.821311E-1,-1.9263846E-1,2.350756E-2,1.0256065E-2,-1.1858515E-2,1.4084377E-3,-7.4174264E-3],"categories":[],"categories_nodes":[],"categories_segments":[],"categories_sizes":[],"default_left":[0,0,0,0,0,0,0,0,0,0,0,0,0,0,0,0,0,0,0,0,0,0,0,0,0,0,0,0,0,0,0],"id":26,"left_children":[1,3,5,7,-1,9,11,13,15,17,19,-1,-1,-1,-1,-1,-1,-1,21,23,25,-1,-1,-1,27,29,-1,-1,-1,-1,-1],"loss_changes":[3.091527E1,1.2266372E1,1.4177319E1,3.8590572E0,0E0,9.729256E0,1.8934817E0,1.3777001E0,5.148983E-1,3.104452E0,8.791389E0,0E0,0E0,0E0,0E0,0E0,0E0,0E0,2.2500293E0,2.3515358E0,3.1022904E0,0E0,0E0,0E0,2.349022E0,1.8517253E-1,0E0,0E0,0E0,0E0,0E0],"parents":[2147483647,0,0,1,1,2,2,3,3,5,5,6,6,7,7,8,8,9,9,10,10,18,18,19,19,20,20,24,24,25,25],"right_children":[2,4,6,8,-1,10,12,14,16,18,20,-1,-1,-1,-1,-1,-1,-1,22,24,26,-1,-1,-1,28,30,-1,-1,-1,-1,-1],"split_conditions":[-1.0937399E0,3.990731E-1,2.053032E0,-1.7510438E-2,2.7614513E-2,-1.2919823E0,-4.8153326E-1,-4.6543851E-1,1.9875237E-1,8.481517E-2,1.9725292E0,-8.4292225E-4,2.3056379E-2,-1.0212078E-3,2.1025248E-2,-1.1465756E-2,1.6308419E-3,2.158093E-2,9.0088004E-1,-2.8107336E0,4.6728253E-1,-1.0197782E-2,1.3409931E-2,1.0524185E-2,-2.8108354E0,-3.864737E-1,2.350756E-2,1.0256065E-2,-1.1858515E-2,1.4084377E-3,-7.4174264E-3],"split_indices":[55,58,55,59,0,2,52,25,51,11,0,0,0,0,0,0,0,0,11,36,30,0,0,0,35,43,0,0,0,0,0],"split_type":[0,0,0,0,0,0,0,0,0,0,0,0,0,0,0,0,0,0,0,0,0,0,0,0,0,0,0,0,0,0,0],"sum_hessian":[2.1773154E2,2.3667122E1,1.9406442E2,1.0729534E1,1.2937587E1,1.8725357E2,6.810848E0,3.8184621E0,6.9110723E0,8.590277E0,1.786633E2,1.5984251E0,5.212423E0,1.6185513E0,2.1999109E0,5.7275567E0,1.1835152E0,3.8355608E0,4.7547164E0,1.7322371E2,5.4395833E0,3.076308E0,1.6784081E0,1.2063651E0,1.7201735E2,2.3923788E0,3.0472045E0,1.2253116E0,1.7079204E2,1.2105591E0,1.1818197E0],"tree_param":{"num_deleted":"0","num_feature":"60","num_nodes":"31","size_leaf_vector":"1"}},{"base_weights":[1.3596536E-1,1.8737382E-1,-4.2563805E-1,3.2241273E-1,3.886035E-2,-5.6655335E-1,3.1193617E-1,2.3393099E-1,8.1108123E-1,-6.619515E-2,3.9547983E-1,6.681156E-3,-6.568864E-1,1.587306E-2,-8.580375E-3,-1.8033545E-1,3.0211514E-1,1.6899154E-2,9.9820185E-1,-1.1181221E-1,1.5517828E-2,5.50536E-1,-1.1695807E-2,-1.4145575E-2,-4.8154438E-4,3.5417074E-1,-5.8232E-1,6.366063E-1,1.748297E-1,1.4356376E-2,-1.0402573E-2,1.0434089E0,6.5214825E-3,4.229503E-2,-3.3875453E-1,9.957114E-2,8.5969E-1,-9.7027635E-3,1.398604E-2,-6.8762375E-4,-1.3398002E-2,-2.1516606E-3,1.6053934E-2,8.893336E-3,4.7088138E-4,2.1900257E-2,6.8041175E-3,4.7986624E-3,-5.893158E-3,9.063135E-3,-8.402899E-3,-6.4454866E-3,1.0479401E-2,1.1387351E-3,2.024758E-2],"categories":[],"categories_nodes":[],"categories_segments":[],"categories_sizes":[],"default_left":[0,0,0,0,0,0,0,0,0,0,0,0,0,0,0,0,0,0,0,0,0,0,0,0,0,0,0,0,0,0,0,0,0,0,0,0,0,0,0,0,0,0,0,0,0,0,0,0,0,0,0,0,0,0,0],"id":27,"left_children":[1,3,5,7,9,11,13,15,17,19,21,-1,23,-1,-1,25,27,29,31,33,-1,35,-1,-1,-1,37,39,41,43,-1,-1,45,-1,47,49,51,53,-1,-1,-1,-1,-1,-1,-1,-1,-1,-1,-1,-1,-1,-1,-1,-1,-1,-1],"loss_changes":[7.769705E0,4.8951817E0,2.5301042E0,5.3461857E0,4.4349785E0,1.7949362E0,1.8670636E0,3.156218E0,2.8398457E0,3.611459E0,4.4139233E0,0E0,5.549755E-1,0E0,0E0,3.6753163E0,3.919119E0,2.13603E0,1.3196373E-1,3.0890458E0,0E0,3.2269268E0,0E0,0E0,0E0,2.526917E0,4.3733668E-1,3.2647934E0,2.8450387E0,0E0,0E0,1.393652E-1,0E0,3.6168103E0,2.4892483E0,2.1014118E0,1.6541004E0,0E0,0E0,0E0,0E0,0E0,0E0,0E0,0E0,0E0,0E0,0E0,0E0,0E0,0E0,0E0,0E0,0E0,0E0],"parents":[2147483647,0,0,1,1,2,2,3,3,4,4,5,5,6,6,7,7,8,8,9,9,10,10,12,12,15,15,16,16,17,17,18,18,19,19,21,21,25,25,26,26,27,27,28,28,31,31,33,33,34,34,35,35,36,36],"right_children":[2,4,6,8,10,12,14,16,18,20,22,-1,24,-1,-1,26,28,30,32,34,-1,36,-1,-1,-1,38,40,42,44,-1,-1,46,-1,48,50,52,54,-1,-1,-1,-1,-1,-1,-1,-1,-1,-1,-1,-1,-1,-1,-1,-1,-1,-1],"split_conditions":[1.2278253E0,6.9430985E-2,1.6801988E0,-8.976635E-2,6.743232E-1,-1.9670922E0,-4.1250595E-1,-9.271021E-1,-6.6492045E-1,2.3399594E0,1.0090181E0,6.681156E-3,8.6349374E-1,1.587306E-2,-8.580375E-3,-4.7521147E-1,-5.391314E-1,-3.205767E-1,7.6585287E-1,2.06693E-1,1.5517828E-2,-3.4230298E-1,-1.1695807E-2,-1.4145575E-2,-4.8154438E-4,-9.035696E-1,-1.0355656E0,-6.302209E-1,-2.3061259E-1,1.4356376E-2,-1.0402573E-2,7.0371646E-1,6.5214825E-3,3.2261503E-1,-1.1901202E0,-4.6222484E-1,-9.032667E-1,-9.7027635E-3,1.398604E-2,-6.8762375E-4,-1.3398002E-2,-2.1516606E-3,1.6053934E-2,8.893336E-3,4.7088138E-4,2.1900257E-2,6.8041175E-3,4.7986624E-3,-5.893158E-3,9.063135E-3,-8.402899E-3,-6.4454866E-3,1.0479401E-2,1.1387351E-3,2.024758E-2],"split_indices":[58,29,8,29,8,29,24,31,43,29,31,0,50,0,0,39,34,2,11,28,0,31,0,0,0,34,6,35,15,0,0,50,0,10,8,11,44,0,0,0,0,0,0,0,0,0,0,0,0,0,0,0,0,0,0],"split_type":[0,0,0,0,0,0,0,0,0,0,0,0,0,0,0,0,0,0,0,0,0,0,0,0,0,0,0,0,0,0,0,0,0,0,0,0,0,0,0,0,0,0,0,0,0,0,0,0,0,0,0,0,0,0,0],"sum_hessian":[2.6535403E2,2.4371136E2,2.1642664E1,1.27033035E2,1.1667833E2,1.836572E1,3.2769442E0,1.0880987E2,1.8223167E1,9.07569E1,2.5921432E1,1.4282411E0,1.6937479E1,1.94277E0,1.3341742E0,1.5145506E1,9.366436E1,3.6828089E0,1.4540358E1,8.6915764E1,3.8411336E0,2.2759748E1,3.1616843E0,1.5579184E1,1.3582957E0,6.552199E0,8.5933075E0,2.471496E1,6.89494E1,1.4515799E0,2.2312288E0,1.3106428E1,1.4339299E0,5.224914E1,3.4666622E1,9.794512E0,1.2965237E1,1.7910249E0,4.7611737E0,1.3761415E0,7.217166E0,4.573786E0,2.0141174E1,2.4072964E1,4.487644E1,1.1691292E1,1.4151359E0,3.311414E1,1.9135004E1,2.8051758E0,3.1861448E1,5.0327125E0,4.761799E0,2.2913735E0,1.0673862E1],"tree_param":{"num_deleted":"0","num_feature":"60","num_nodes":"55","size_leaf_vector":"1"}},{"base_weights":[1.2011395E-1,-2.145232E-1,6.188092E-1,-1.4469995E-2,-5.78854E-3,8.700372E-1,-5.5409664E-1,5.900142E-1,-5.837543E-1,9.930865E-1,-4.2971802E-1,-1.3898263E-2,3.6386773E-2,-1.3096447E-2,7.9597807E-1,-6.2936693E-1,7.042676E-3,2.2295131E-1,1.0485371E0,-1.2902982E-2,7.20126E-3,1.4815705E-2,-1.0226929E-2,9.976596E-1,2.0848513E-1,-6.9198793E-1,-2.1084276E-1,6.125159E-1,-1.0179686E-2,-3.577287E-3,1.0829182E0,2.1379922E-2,-9.031533E-3,1.5257198E-2,-1.2666371E-2,-3.1360917E-4,-1.4228811E-2,-1.2458324E-2,1.2414401E-2,-9.850045E-4,1.8013999E-2,2.1895839E-2,6.0268915E-3],"categories":[],"categories_nodes":[],"categories_segments":[],"categories_sizes":[],"default_left":[0,0,0,0,0,0,0,0,0,0,0,0,0,0,0,0,0,0,0,0,0,0,0,0,0,0,0,0,0,0,0,0,0,0,0,0,0,0,0,0,0,0,0],"id":28,"left_children":[1,3,5,-1,7,9,11,13,15,17,19,-1,21,-1,23,25,-1,27,29,-1,-1,-1,-1,31,33,35,37,39,-1,-1,41,-1,-1,-1,-1,-1,-1,-1,-1,-1,-1,-1,-1],"loss_changes":[4.3711967E1,1.667743E1,3.1457851E1,0E0,3.903565E1,1.4335587E1,1.6180315E0,1.4833786E1,2.6777306E0,3.1717834E0,1.6307251E0,0E0,2.168507E0,0E0,5.5207634E0,1.3013496E0,0E0,2.2011528E0,3.321556E0,0E0,0E0,0E0,0E0,4.176529E0,6.839423E0,6.150093E-1,3.3422093E0,9.556532E-1,0E0,0E0,3.405304E-1,0E0,0E0,0E0,0E0,0E0,0E0,0E0,0E0,0E0,0E0,0E0,0E0],"parents":[2147483647,0,0,1,1,2,2,4,4,5,5,6,6,7,7,8,8,9,9,10,10,12,12,14,14,15,15,17,17,18,18,23,23,24,24,25,25,26,26,27,27,30,30],"right_children":[2,4,6,-1,8,10,12,14,16,18,20,-1,22,-1,24,26,-1,28,30,-1,-1,-1,-1,32,34,36,38,40,-1,-1,42,-1,-1,-1,-1,-1,-1,-1,-1,-1,-1,-1,-1],"split_conditions":[4.381543E-1,-8.4560835E-1,7.5245607E-1,-1.4469995E-2,-4.0260664E-1,1.7071211E0,9.325763E-1,-9.281645E-1,2.3229675E0,4.6028873E-1,6.1497784E-1,-1.3898263E-2,3.0424345E-1,-1.3096447E-2,1.8515857E-1,1.0720357E0,7.042676E-3,4.548878E-1,-1.6946129E0,-1.2902982E-2,7.20126E-3,1.4815705E-2,-1.0226929E-2,1.0625912E0,-5.82198E-1,-1.7010323E0,-1.0937399E0,-6.9271356E-1,-1.0179686E-2,-3.577287E-3,2.5655394E0,2.1379922E-2,-9.031533E-3,1.5257198E-2,-1.2666371E-2,-3.1360917E-4,-1.4228811E-2,-1.2458324E-2,1.2414401E-2,-9.850045E-4,1.8013999E-2,2.1895839E-2,6.0268915E-3],"split_indices":[1,0,1,0,0,0,45,1,36,1,52,0,0,0,1,0,0,1,23,0,0,0,0,58,0,11,55,18,0,0,56,0,0,0,0,0,0,0,0,0,0,0,0],"split_type":[0,0,0,0,0,0,0,0,0,0,0,0,0,0,0,0,0,0,0,0,0,0,0,0,0,0,0,0,0,0,0,0,0,0,0,0,0,0,0,0,0,0,0],"sum_hessian":[2.60138E2,1.5601668E2,1.0412131E2,4.4657684E1,1.1135899E2,8.596619E1,1.8155119E1,5.482311E1,5.6535885E1,7.874706E1,7.21913E0,1.4516433E1,3.6386862E0,7.473613E0,4.7349495E1,5.422083E1,2.3150558E0,5.626278E0,7.312078E1,5.8158507E0,1.4032791E0,1.4375304E0,2.201156E0,3.472911E1,1.2620385E1,4.6595634E1,7.625196E0,3.7784147E0,1.8478632E0,1.877889E0,7.124289E1,3.3349884E1,1.3792243E0,7.665804E0,4.9545813E0,1.3532523E0,4.5242382E1,5.2663918E0,2.358804E0,1.3977709E0,2.3806438E0,6.978199E1,1.460898E0],"tree_param":{"num_deleted":"0","num_feature":"60","num_nodes":"43","size_leaf_vector":"1"}},{"base_weights":[-2.6937738E-1,8.3031476E-1,-4.1948557E-1,3.5060236E-1,2.689959E-2,-5.118893E-1,1.0034137E0,8.274844E-1,-2.0572355E-1,-5.4641294E-1,6.431049E-1,-7.403004E-3,1.1892372E0,2.5153032E-2,7.0482017E-3,-1.1181739E-2,1.2919192E-2,-5.6727046E-1,6.2883484E-1,1.9486716E-2,-7.128356E-3,2.6592083E-2,1.1700009E-3,9.827359E-3,-8.376915E-3,-5.205698E-2,-5.976927E-1,1.40121E-3,1.7838972E-2,-1.1269064E-2,1.1189659E-2,-1.2293237E-2,-1.7685702E-4],"categories":[],"categories_nodes":[],"categories_segments":[],"categories_sizes":[],"default_left":[0,0,0,0,0,0,0,0,0,0,0,0,0,0,0,0,0,0,0,0,0,0,0,0,0,0,0,0,0,0,0,0,0],"id":29,"left_children":[1,3,5,7,-1,9,11,13,15,17,19,-1,21,-1,23,-1,-1,25,27,-1,-1,-1,-1,-1,-1,29,31,-1,-1,-1,-1,-1,-1],"loss_changes":[3.5752716E1,5.9712276E0,2.5413795E1,4.112362E0,0E0,7.4688454E0,3.474084E0,2.885078E0,2.6661956E0,4.6184044E0,2.2144809E0,0E0,1.621664E0,0E0,9.9501914E-1,0E0,0E0,2.6546135E0,4.5295632E-1,0E0,0E0,0E0,0E0,0E0,0E0,3.645643E0,1.6103287E0,0E0,0E0,0E0,0E0,0E0,0E0],"parents":[2147483647,0,0,1,1,2,2,3,3,5,5,6,6,7,7,8,8,9,9,10,10,12,12,14,14,17,17,18,18,25,25,26,26],"right_children":[2,4,6,8,-1,10,12,14,16,18,20,-1,22,-1,24,-1,-1,26,28,-1,-1,-1,-1,-1,-1,30,32,-1,-1,-1,-1,-1,-1],"split_conditions":[-9.1743994E-1,-7.823533E-1,1.9725292E0,8.847704E-2,2.689959E-2,2.207893E0,-7.297699E-2,2.3569916E-1,3.2223067E-1,2.053032E0,2.3425343E0,-7.403004E-3,7.873643E-1,2.5153032E-2,2.4668123E-1,-1.1181739E-2,1.2919192E-2,-1.3121885E0,-5.8607817E-1,1.9486716E-2,-7.128356E-3,2.6592083E-2,1.1700009E-3,9.827359E-3,-8.376915E-3,-1.08229056E-1,1.5662143E0,1.40121E-3,1.7838972E-2,-1.1269064E-2,1.1189659E-2,-1.2293237E-2,-1.7685702E-4],"split_indices":[1,0,0,11,0,58,58,24,58,55,9,0,1,0,12,0,0,4,1,0,0,0,0,0,0,25,54,0,0,0,0,0,0],"split_type":[0,0,0,0,0,0,0,0,0,0,0,0,0,0,0,0,0,0,0,0,0,0,0,0,0,0,0,0,0,0,0,0,0],"sum_hessian":[2.134776E2,2.5095633E1,1.8838197E2,1.3859032E1,1.12366E1,1.7749557E2,1.0886391E1,7.199886E0,6.6591454E0,1.728557E2,4.6398773E0,1.1790661E0,9.707324E0,4.3737545E0,2.8261316E0,4.949251E0,1.7098942E0,1.7034976E2,2.505934E0,3.5039163E0,1.1359608E0,8.4789E0,1.228424E0,1.2504299E0,1.5757017E0,9.649129E0,1.6070064E2,1.2076097E0,1.2983243E0,5.2976427E0,4.3514867E0,1.5615677E2,4.54387E0],"tree_param":{"num_deleted":"0","num_feature":"60","num_nodes":"33","size_leaf_vector":"1"}},{"base_weights":[1.4506759E-1,8.991921E-1,-5.2042764E-2,-1.2250017E-1,1.0304784E0,-1.5644933E-1,8.6729E-1,1.3942468E-2,-4.6254322E-1,4.2372182E-4,1.0821177E0,1.13931306E-1,-6.3437754E-1,-8.768006E-3,9.776237E-1,-1.1809751E-2,-8.6562656E-4,2.2379573E-2,4.7985244E-1,-3.5410646E-1,5.496458E-1,-6.720328E-1,-8.905625E-2,1.0492574E0,4.079098E-1,1.5525539E-2,-1.5646244E-3,-5.670879E-1,8.484196E-2,-3.8030037E-1,7.6134455E-1,-1.6089515E-1,-7.0009005E-1,1.0664416E-2,-1.097133E-2,2.1913497E-2,6.420494E-3,1.3851372E-2,-1.1062355E-3,1.6740006E-3,-1.4615192E-2,-1.3393143E-2,1.2865652E-2,6.712454E-3,-1.3473112E-2,1.9103594E-2,-1.2938343E-2,-1.0306537E-2,7.718876E-3,-1.4309075E-2,-5.3024595E-4],"categories":[],"categories_nodes":[],"categories_segments":[],"categories_sizes":[],"default_left":[0,0,0,0,0,0,0,0,0,0,0,0,0,0,0,0,0,0,0,0,0,0,0,0,0,0,0,0,0,0,0,0,0,0,0,0,0,0,0,0,0,0,0,0,0,0,0,0,0,0,0],"id":30,"left_children":[1,3,5,7,9,11,13,-1,15,-1,17,19,21,-1,23,-1,-1,-1,25,27,29,31,33,35,37,-1,-1,39,41,43,45,47,49,-1,-1,-1,-1,-1,-1,-1,-1,-1,-1,-1,-1,-1,-1,-1,-1,-1,-1],"loss_changes":[3.882469E1,7.3844833E0,2.007766E1,2.2888174E0,2.4817505E0,2.4291304E1,3.5030975E0,0E0,2.7417755E-1,0E0,4.775467E-1,2.477838E1,1.3338432E0,0E0,3.8773346E-1,0E0,0E0,0E0,7.8636265E-1,5.5383854E0,1.2657272E1,7.956562E-1,1.8756804E0,2.2695732E-1,5.4841614E-1,0E0,0E0,4.2867975E0,8.881087E0,2.8127434E0,1.4677567E1,1.0892965E0,5.9926987E-1,0E0,0E0,0E0,0E0,0E0,0E0,0E0,0E0,0E0,0E0,0E0,0E0,0E0,0E0,0E0,0E0,0E0,0E0],"parents":[2147483647,0,0,1,1,2,2,3,3,4,4,5,5,6,6,8,8,10,10,11,11,12,12,14,14,18,18,19,19,20,20,21,21,22,22,23,23,24,24,27,27,28,28,29,29,30,30,31,31,32,32],"right_children":[2,4,6,8,10,12,14,-1,16,-1,18,20,22,-1,24,-1,-1,-1,26,28,30,32,34,36,38,-1,-1,40,42,44,46,48,50,-1,-1,-1,-1,-1,-1,-1,-1,-1,-1,-1,-1,-1,-1,-1,-1,-1,-1],"split_conditions":[-8.4560835E-1,-1.4071463E0,7.5245607E-1,-5.848849E-1,-1.9697248E0,4.6028873E-1,-1.5434029E0,1.3942468E-2,5.029051E-1,4.2372182E-4,9.6013254E-1,8.705476E-2,1.2143849E0,-8.768006E-3,7.978653E-1,-1.1809751E-2,-8.6562656E-4,2.2379573E-2,-1.05759196E-1,-3.2332826E-1,-5.449016E-1,-1.2422831E0,-5.009255E-1,8.941819E-1,-1.1918699E0,1.5525539E-2,-1.5646244E-3,-7.823533E-1,-3.6450684E-1,-2.3823972E-1,1.0304866E0,8.4797665E-2,7.496788E-1,1.0664416E-2,-1.097133E-2,2.1913497E-2,6.420494E-3,1.3851372E-2,-1.1062355E-3,1.6740006E-3,-1.4615192E-2,-1.3393143E-2,1.2865652E-2,6.712454E-3,-1.3473112E-2,1.9103594E-2,-1.2938343E-2,-1.0306537E-2,7.718876E-3,-1.4309075E-2,-5.3024595E-4],"split_indices":[0,1,1,34,21,1,4,0,19,0,30,1,21,0,30,0,0,0,32,0,0,38,58,55,18,0,0,0,1,14,0,14,1,0,0,0,0,0,0,0,0,0,0,0,0,0,0,0,0,0,0],"split_type":[0,0,0,0,0,0,0,0,0,0,0,0,0,0,0,0,0,0,0,0,0,0,0,0,0,0,0,0,0,0,0,0,0,0,0,0,0,0,0,0,0,0,0,0,0,0,0,0,0,0,0],"sum_hessian":[2.598746E2,5.31119E1,2.067627E2,6.0553145E0,4.7056587E1,1.864211E2,2.0341602E1,1.4676522E0,4.587662E0,2.3590586E0,4.469753E1,1.1954943E2,6.687166E1,1.3532944E0,1.8988308E1,3.2020946E0,1.3855677E0,4.1311172E1,3.3863554E0,5.7727135E1,6.1822296E1,6.233498E1,4.5366807E0,1.6119745E1,2.8685632E0,1.956302E0,1.4300532E0,3.8671486E1,1.9055649E1,1.1316217E1,5.0506077E1,3.5940695E0,5.874091E1,1.858906E0,2.677775E0,1.4679508E1,1.4402369E0,1.4700658E0,1.3984973E0,7.869514E0,3.080197E1,8.020348E0,1.1035302E1,3.2472754E0,8.068943E0,4.4678234E1,5.8278456E0,2.2156377E0,1.3784318E0,5.737018E1,1.3707304E0],"tree_param":{"num_deleted":"0","num_feature":"60","num_nodes":"51","size_leaf_vector":"1"}},{"base_weights":[7.919101E-2,-2.3269802E-1,5.6622964E-1,-1.4416023E-2,-1.6043669E-2,8.251758E-1,-6.0088015E-1,6.1061066E-1,-5.7023907E-1,9.495401E-1,-5.2698636E-1,-1.3896972E-2,-2.5342058E-2,-1.2814439E-2,8.023841E-1,-6.556687E-1,-2.4353731E-2,7.5828455E-2,9.8759985E-1,-3.1267919E-4,-1.2667646E-2,-8.439354E-3,7.391751E-3,9.7336394E-1,2.7645105E-1,-1.00541204E-1,-6.8980914E-1,-1.1698727E-2,5.1140165E-1,-1.0193065E-2,1.4520727E-2,1.0189404E0,2.5903517E-1,2.037911E-2,-1.1395736E-3,1.6794514E-2,-1.2385131E-2,7.7346037E-3,-9.6169105E-3,-7.633919E-3,-1.4536809E-2,1.7810572E-2,-2.646472E-3,1.1138849E-2,2.1557176E-2,1.556617E-2,-9.6116355E-3],"categories":[],"categories_nodes":[],"categories_segments":[],"categories_sizes":[],"default_left":[0,0,0,0,0,0,0,0,0,0,0,0,0,0,0,0,0,0,0,0,0,0,0,0,0,0,0,0,0,0,0,0,0,0,0,0,0,0,0,0,0,0,0,0,0,0,0],"id":31,"left_children":[1,3,5,-1,7,9,11,13,15,17,19,-1,21,-1,23,25,27,29,31,-1,-1,-1,-1,33,35,37,39,-1,41,-1,-1,43,45,-1,-1,-1,-1,-1,-1,-1,-1,-1,-1,-1,-1,-1,-1],"loss_changes":[3.9596016E1,1.6811865E1,3.123553E1,0E0,3.8968086E1,1.4569637E1,1.0125518E0,1.3154175E1,2.7602425E0,2.4848022E0,4.0848017E-1,0E0,7.372935E-1,0E0,3.877964E0,9.0548706E-1,3.0304763E0,2.0055733E0,1.4184265E0,0E0,0E0,0E0,0E0,1.6742897E0,6.9331093E0,9.551314E-1,2.7350044E-1,0E0,1.382929E0,0E0,0E0,1.3132629E0,2.0560906E0,0E0,0E0,0E0,0E0,0E0,0E0,0E0,0E0,0E0,0E0,0E0,0E0,0E0,0E0],"parents":[2147483647,0,0,1,1,2,2,4,4,5,5,6,6,7,7,8,8,9,9,10,10,12,12,14,14,15,15,16,16,17,17,18,18,23,23,24,24,25,25,26,26,28,28,31,31,32,32],"right_children":[2,4,6,-1,8,10,12,14,16,18,20,-1,22,-1,24,26,28,30,32,-1,-1,-1,-1,34,36,38,40,-1,42,-1,-1,44,46,-1,-1,-1,-1,-1,-1,-1,-1,-1,-1,-1,-1,-1,-1],"split_conditions":[4.381543E-1,-8.4560835E-1,7.5245607E-1,-1.4416023E-2,-4.0260664E-1,1.7071211E0,7.961582E-1,-9.9833524E-1,1.0720357E0,-1.6958659E0,-1.028317E0,-1.3896972E-2,-1.5572602E-1,-1.2814439E-2,1.8515857E-1,-1.2692062E0,1.1391433E-1,4.812607E-1,1.2143849E0,-3.1267919E-4,-1.2667646E-2,-8.439354E-3,7.391751E-3,1.0506045E0,-5.82198E-1,3.9920695E-2,-2.917201E-1,-1.1698727E-2,2.6209494E-1,-1.0193065E-2,1.4520727E-2,4.7817203E-1,-2.3260021E-1,2.037911E-2,-1.1395736E-3,1.6794514E-2,-1.2385131E-2,7.7346037E-3,-9.6169105E-3,-7.633919E-3,-1.4536809E-2,1.7810572E-2,-2.646472E-3,1.1138849E-2,2.1557176E-2,1.556617E-2,-9.6116355E-3],"split_indices":[1,0,1,0,0,0,54,1,0,34,27,0,17,0,1,17,1,13,21,0,0,0,0,14,0,1,0,0,24,0,0,1,7,0,0,0,0,0,0,0,0,0,0,0,0,0,0],"split_type":[0,0,0,0,0,0,0,0,0,0,0,0,0,0,0,0,0,0,0,0,0,0,0,0,0,0,0,0,0,0,0,0,0,0,0,0,0,0,0,0,0,0,0,0,0,0,0],"sum_hessian":[2.5880075E2,1.5808728E2,1.0071346E2,4.788335E1,1.10203926E2,8.266548E1,1.8047981E1,5.167304E1,5.853089E1,7.597545E1,6.690031E0,1.5336652E1,2.7113283E0,6.555697E0,4.511734E1,5.043659E1,8.094303E0,3.2963264E0,7.267912E1,1.3497765E0,5.340255E0,1.3186014E0,1.392727E0,3.3406284E1,1.1711059E1,3.1507096E0,4.7285877E1,3.9106426E0,4.183661E0,1.8482409E0,1.4480855E0,6.929951E1,3.3796153E0,3.2001312E1,1.404969E0,7.228097E0,4.482961E0,1.373716E0,1.7769936E0,6.286603E0,4.0999275E1,2.39167E0,1.7919909E0,9.020398E0,6.027911E1,1.95484E0,1.4247752E0],"tree_param":{"num_deleted":"0","num_feature":"60","num_nodes":"47","size_leaf_vector":"1"}},{"base_weights":[-2.882437E-1,7.9647E-1,-4.3394625E-1,-1.4265044E-1,2.6811974E-2,5.9393454E-1,-5.1437914E-1,-4.695723E-1,1.4868958E-2,1.85315E-1,2.447314E-2,-5.552503E-1,2.0324234E-2,1.5922288E-3,-1.1464758E-2,-1.0698929E-2,7.333898E-1,-5.814028E-1,6.901445E-1,-7.2546056E-3,2.1383448E-2,1.0411284E-2,-5.923974E-1,1.90857E-2,1.0554811E-3,1.0193659E-2,-1.2070188E-2],"categories":[],"categories_nodes":[],"categories_segments":[],"categories_sizes":[],"default_left":[0,0,0,0,0,0,0,0,0,0,0,0,0,0,0,0,0,0,0,0,0,0,0,0,0,0,0],"id":32,"left_children":[1,3,5,7,-1,9,11,13,-1,15,-1,17,-1,-1,-1,-1,19,21,23,-1,-1,-1,25,-1,-1,-1,-1],"loss_changes":[3.4381393E1,1.3402864E1,1.6055153E1,3.3584845E0,0E0,3.4500704E0,1.1650032E1,5.12563E-1,0E0,4.2784653E0,0E0,6.0439835E0,0E0,0E0,0E0,0E0,2.6006553E0,2.3708076E0,6.265142E-1,0E0,0E0,0E0,2.3773994E0,0E0,0E0,0E0,0E0],"parents":[2147483647,0,0,1,1,2,2,3,3,5,5,6,6,7,7,9,9,11,11,16,16,17,17,18,18,22,22],"right_children":[2,4,6,8,-1,10,12,14,-1,16,-1,18,-1,-1,-1,-1,20,22,24,-1,-1,-1,26,-1,-1,-1,-1],"split_conditions":[-1.0937399E0,3.1501487E-1,-9.4417936E-1,6.371267E-1,2.6811974E-2,-7.848423E-1,2.4557118E0,-1.0313193E0,1.4868958E-2,3.2689887E-1,2.447314E-2,1.7603257E0,2.0324234E-2,1.5922288E-3,-1.1464758E-2,-1.0698929E-2,-1.2954683E0,-3.6281457E0,6.839924E-1,-7.2546056E-3,2.1383448E-2,1.0411284E-2,-2.8108354E0,1.90857E-2,1.0554811E-3,1.0193659E-2,-1.2070188E-2],"split_indices":[55,58,1,30,0,0,55,19,0,50,0,2,0,0,0,0,22,34,1,0,0,0,35,0,0,0,0],"split_type":[0,0,0,0,0,0,0,0,0,0,0,0,0,0,0,0,0,0,0,0,0,0,0,0,0,0,0],"sum_hessian":[2.1435416E2,2.4854336E1,1.8949983E2,9.388467E0,1.5465869E1,1.328912E1,1.7621071E2,7.201554E0,2.1869125E0,8.844383E0,4.4447365E0,1.7224841E2,3.9622974E0,1.1803756E0,6.0211782E0,3.832195E0,5.012188E0,1.6922789E2,3.0205183E0,1.1565435E0,3.8556445E0,1.2138994E0,1.6801399E2,1.7839767E0,1.2365416E0,1.2292624E0,1.6678473E2],"tree_param":{"num_deleted":"0","num_feature":"60","num_nodes":"27","size_leaf_vector":"1"}},{"base_weights":[1.2578435E-1,8.2576257E-1,-6.574247E-2,-1.1259286E-2,9.0888923E-1,-5.633138E-1,6.1901364E-2,-6.4763606E-2,9.944963E-1,1.0428834E-2,-6.280044E-1,-5.626028E-1,1.2343809E-1,1.4071673E-2,-1.1150415E-2,-1.4596343E-3,1.0285382E0,6.810015E-3,-6.7329085E-1,-1.3712437E-2,6.9654123E-3,2.7487433E-1,-8.911976E-2,1.0635216E0,-1.1581738E-3,-6.9708467E-1,-3.3110892E-4,4.5509225E-1,4.3999865E-3,-2.0261154E-1,4.94798E-1,5.849766E-3,2.1651942E-2,-3.0195154E-3,-1.442886E-2,1.5795251E-2,5.16063E-3,6.653875E-3,-4.250489E-3,-9.982181E-3,-6.106636E-5,1.3501386E-2,-8.489147E-3],"categories":[],"categories_nodes":[],"categories_segments":[],"categories_sizes":[],"default_left":[0,0,0,0,0,0,0,0,0,0,0,0,0,0,0,0,0,0,0,0,0,0,0,0,0,0,0,0,0,0,0,0,0,0,0,0,0,0,0,0,0,0,0],"id":33,"left_children":[1,3,5,-1,7,9,11,13,15,-1,17,19,21,-1,-1,-1,23,-1,25,-1,-1,27,29,31,-1,33,-1,35,37,39,41,-1,-1,-1,-1,-1,-1,-1,-1,-1,-1,-1,-1],"loss_changes":[3.4383934E1,6.870838E0,1.2863115E1,0E0,4.4284897E0,3.2281284E0,6.2815E0,2.3497756E0,1.8261452E0,0E0,1.960103E0,1.8836689E0,4.7873964E0,0E0,0E0,0E0,1.8389816E0,0E0,5.828171E-1,0E0,0E0,4.221767E0,4.2298813E0,3.5046005E-1,0E0,3.7903023E-1,0E0,3.2251415E0,2.610161E0,3.1275463E0,2.0151658E0,0E0,0E0,0E0,0E0,0E0,0E0,0E0,0E0,0E0,0E0,0E0,0E0],"parents":[2147483647,0,0,1,1,2,2,4,4,5,5,6,6,7,7,8,8,10,10,11,11,12,12,16,16,18,18,21,21,22,22,23,23,25,25,27,27,28,28,29,29,30,30],"right_children":[2,4,6,-1,8,10,12,14,16,-1,18,20,22,-1,-1,-1,24,-1,26,-1,-1,28,30,32,-1,34,-1,36,38,40,42,-1,-1,-1,-1,-1,-1,-1,-1,-1,-1,-1,-1],"split_conditions":[-8.271358E-1,-2.3572955E0,-5.196971E-1,-1.1259286E-2,-9.1825455E-1,-1.6945713E0,-1.2358732E0,-5.7291394E-1,-1.4902042E0,1.0428834E-2,-2.2251883E0,8.245219E-1,1.7867664E-1,1.4071673E-2,-1.1150415E-2,-1.4596343E-3,1.6414547E0,6.810015E-3,1.8631775E0,-1.3712437E-2,6.9654123E-3,3.330588E-1,9.1191185E-1,-1.6736509E0,-1.1581738E-3,-8.1972134E-1,-3.3110892E-4,-2.1312119E-1,-1.0794786E-1,3.0332702E-1,9.8195803E-1,5.849766E-3,2.1651942E-2,-3.0195154E-3,-1.442886E-2,1.5795251E-2,5.16063E-3,6.653875E-3,-4.250489E-3,-9.982181E-3,-6.106636E-5,1.3501386E-2,-8.489147E-3],"split_indices":[0,2,0,0,55,40,55,6,5,0,57,48,29,0,0,0,30,0,40,0,0,0,16,40,0,0,0,59,48,2,46,0,0,0,0,0,0,0,0,0,0,0,0],"split_type":[0,0,0,0,0,0,0,0,0,0,0,0,0,0,0,0,0,0,0,0,0,0,0,0,0,0,0,0,0,0,0,0,0,0,0,0,0,0,0,0,0,0,0],"sum_hessian":[2.5506795E2,5.4086197E1,2.0098175E2,2.7286465E0,5.135755E1,4.033557E1,1.6064618E2,4.1702814E0,4.718727E1,1.8727111E0,3.846286E1,1.3679319E1,1.4696686E2,1.4622971E0,2.7079842E0,1.4229503E0,